{"layers":[{"out_depth":192,"out_sx":1,"out_sy":1,"layer_type":"input"},{"out_depth":192,"out_sx":1,"out_sy":1,"layer_type":"fc","num_inputs":192,"l1_decay_mul":0,"l2_decay_mul":1,"filters":[{"sx":1,"sy":1,"depth":192,"w":{"0":0.026438976741125414,"1":0.2623393447359566,"2":-0.15109654104167178,"3":-0.1500428599914274,"4":-0.10182531966317468,"5":-0.052036303183546365,"6":-0.11638700393749249,"7":-0.03347237051932767,"8":-0.0009371429703162606,"9":0.01023941871067706,"10":-0.0392780553266124,"11":0.006789796034578865,"12":0.04623707732386156,"13":-0.022389759874643443,"14":0.062183753248998094,"15":0.03413411948334078,"16":-0.10575873737916164,"17":0.07019424586568608,"18":-0.0423717859055154,"19":0.015858855421753176,"20":0.049481041484520046,"21":0.05317029960494225,"22":0.011853346151624464,"23":0.01607772275713294,"24":0.13266811637592438,"25":-0.019605315550947827,"26":-0.030018630468712854,"27":-0.08332600924031394,"28":-0.049719861001883144,"29":0.047482377356041154,"30":-0.013734820780959842,"31":-0.013820473650520509,"32":0.06379380787072836,"33":0.021526215308962957,"34":0.05092328503364753,"35":0.048481656480751804,"36":0.024149824647874168,"37":0.039357058960073604,"38":0.00029518502725703794,"39":-0.033658505451487616,"40":0.03898690577007602,"41":0.0014223063475856826,"42":0.0018192780323668355,"43":0.08632486092573195,"44":0.04207366569913815,"45":-0.07947552666805281,"46":0.08303060545187609,"47":0.043773443308251204,"48":0.008049535713442047,"49":-0.06330579349483977,"50":-0.08506833300423725,"51":0.00687682930539354,"52":-0.065014359858187,"53":-0.05276721664031537,"54":-0.030240513404467324,"55":-0.006979504653127097,"56":-0.06013490846910376,"57":-0.03456415483314333,"58":0.003119374524209198,"59":-0.10110548819333195,"60":0.08350405496365573,"61":-0.0029709903123612508,"62":0.06897950747408801,"63":0.06070558470068843,"64":0.06431234998404689,"65":0.015659419216015994,"66":0.10728468302067522,"67":0.05215978176111184,"68":0.14621248743224005,"69":-0.0031198468539058158,"70":-0.04239890233015779,"71":-0.03190724744873697,"72":0.005154339418385189,"73":-0.03441960286649961,"74":-0.058456627418036367,"75":0.05949151592309711,"76":0.020462952792849674,"77":-0.0216785527459827,"78":-0.023102105860452544,"79":-0.06341304221994601,"80":-0.0003453957324736533,"81":-0.007946037682861595,"82":0.011771331800625113,"83":0.05327206424081241,"84":0.057130941982944175,"85":0.0439489533839981,"86":0.07936031503227532,"87":0.04865818116860386,"88":0.017033504194324586,"89":-0.04472455261600571,"90":-0.030813068675427678,"91":0.06338752668608746,"92":0.04406970248197546,"93":-0.020130307944398074,"94":0.008958000895157223,"95":-0.11776014488568508,"96":0.06547519084612209,"97":-0.033831241720478085,"98":-0.012309233844539733,"99":-0.04468071893831447,"100":0.002807253932472703,"101":-0.051340780120244955,"102":0.048987886024731156,"103":0.0017752009496356691,"104":-0.02778862451598496,"105":-0.021572750105876136,"106":-0.03262376273241986,"107":0.05046586903858,"108":0.045855493008092184,"109":0.03882540723671187,"110":-0.003083808374353817,"111":0.028707514307608872,"112":-0.02616244256314232,"113":-0.04006610015973407,"114":-0.008272096495460774,"115":-0.031054414508974247,"116":0.03640924979778318,"117":-0.0733346224955526,"118":-0.0777171012005092,"119":-0.02652739133778396,"120":0.08005309096487355,"121":-0.04594045359650179,"122":0.014316197308674292,"123":-0.0840550155063021,"124":-0.06741993164493915,"125":-0.033658373470588775,"126":0.013652521864082482,"127":-0.03627829211020001,"128":-0.09366664434591968,"129":0.251186742418163,"130":0.013070525354337881,"131":-0.05412075334334358,"132":-0.016134520925116084,"133":-0.00837265531000604,"134":0.21313181659183728,"135":0.14129495079659166,"136":0.03766555094038369,"137":0.026828927854334383,"138":0.10357789151368392,"139":0.09081259029147641,"140":0.07229798788646485,"141":0.02722770466885508,"142":-0.021115377582493024,"143":0.0861602392036393,"144":0.04330349718391779,"145":0.050401509121154445,"146":-0.016468101862778337,"147":-0.11693403630629383,"148":-0.09520119107609498,"149":0.0720641419873552,"150":0.1304136737050446,"151":0.05199850458037369,"152":0.11061785477603223,"153":0.04484566514270186,"154":-0.052676289646767314,"155":0.050362012494743126,"156":0.08443851293251964,"157":0.05336184339692867,"158":0.06422812653035168,"159":-0.035981521542419126,"160":0.006782750011556319,"161":-0.03021200119945105,"162":0.09007821735693715,"163":-0.0012836457744128398,"164":-0.020555553954482626,"165":-0.0007725454824000895,"166":0.07352062400689907,"167":0.10555082014827123,"168":-0.07262316624960208,"169":0.061789550684921535,"170":0.07543268062531137,"171":-0.004368124939839548,"172":0.01952999439757164,"173":-0.019549342597372846,"174":0.034412399285397646,"175":0.07536213888125484,"176":-0.1299686740419114,"177":-0.11343855354037678,"178":0.0010991416329345293,"179":-0.014421600905081464,"180":0.006991413635664809,"181":-0.001453579665384909,"182":0.011143362810518528,"183":0.07495562001740753,"184":-0.07148982149567212,"185":0.017111232868749812,"186":-0.11116907508101272,"187":0.04624697750779007,"188":0.02946926391998689,"189":-0.009544717372621,"190":0.006177380253393543,"191":-0.05573804219895846}},{"sx":1,"sy":1,"depth":192,"w":{"0":-0.01205408565448161,"1":-0.12967606511254834,"2":-0.11623206870267168,"3":-0.18369056974469866,"4":-0.12527181973557827,"5":-0.12026380098810702,"6":-0.08093218898733898,"7":-0.27951751446043543,"8":-0.10220212615764465,"9":-0.030600132223648897,"10":-0.05817101582110404,"11":-0.030509364082018802,"12":-0.034910672697974834,"13":-0.09350996160938929,"14":-0.12607185346804045,"15":-0.11714312247301008,"16":-0.09061334487101735,"17":-0.03000318864057495,"18":-0.027009472979095738,"19":0.03755410879261143,"20":-0.0008976535384384661,"21":-0.052151679612508446,"22":0.007109458189053821,"23":0.006263563422112163,"24":-0.07306843499529661,"25":0.023135682874540642,"26":0.02512515944878622,"27":0.061332623316099115,"28":0.0012137673949872028,"29":0.07509769819290937,"30":0.031444607867040265,"31":-0.02447226138686209,"32":0.03438936425954502,"33":-0.009948122354989939,"34":-0.04259083749199605,"35":0.12340329613856907,"36":0.020476691340096064,"37":0.0006712201718184318,"38":0.03328359150923918,"39":-0.024990650178981184,"40":0.05110859097078503,"41":-0.06550215223893928,"42":0.046268068403501256,"43":-0.004081247144477714,"44":0.048729717723201414,"45":0.11253701543914102,"46":-0.04499679094509411,"47":0.06322026661072531,"48":0.03471884423309753,"49":-0.009591846414947638,"50":0.03068198958721636,"51":-0.003952556356229296,"52":0.006367748864207998,"53":0.05955058389134647,"54":0.022984961713740787,"55":0.11441445837398943,"56":-0.0031915764757508625,"57":0.08122074197463301,"58":0.11086618625961142,"59":0.00438295253497573,"60":-0.005002956153162415,"61":-0.014501447001222184,"62":-0.09471135844489012,"63":-0.06364055046791116,"64":-0.1260563024439861,"65":-0.03470603825221658,"66":0.03126564550527113,"67":0.14807478555477563,"68":0.06329992303693228,"69":-0.02350040221537448,"70":0.03321568428977461,"71":0.04731740434645697,"72":0.06976352654984996,"73":0.10118808808128045,"74":0.017461514544485947,"75":-0.003704876587398735,"76":0.038516179102965134,"77":0.006291774310723812,"78":0.025163647548014773,"79":0.02186896826684246,"80":0.005318466231845785,"81":0.013660371867841834,"82":-0.013311173249214199,"83":0.03128245416907063,"84":-0.009636467785673175,"85":-0.010405866257955308,"86":-0.0046641763630321945,"87":0.009765882060753992,"88":0.04101958942580883,"89":-0.04809522095074957,"90":-0.006337598108402613,"91":-0.023580745164129918,"92":0.06269939575833211,"93":0.09237128297236132,"94":0.017339221636867987,"95":0.02380502103981315,"96":0.03313689365106693,"97":0.08159361954633924,"98":-0.027313628870506774,"99":0.11234121015537128,"100":0.03488361347825835,"101":0.02085502951305498,"102":-0.004598884864254674,"103":0.016397883464447156,"104":-0.025898148933132352,"105":-0.07962679663078666,"106":-0.028926748776813622,"107":0.08177166663471305,"108":-0.04690393558940759,"109":0.019613344904981077,"110":-0.06551946779710482,"111":0.007810121804700791,"112":0.081809079443818,"113":0.06138519904029998,"114":-0.039318298173665174,"115":0.017820001079102935,"116":0.013008026820488685,"117":-0.0033297784273104017,"118":-0.026382742696082834,"119":-0.04310479805556068,"120":-0.04236918648574252,"121":-0.04599671011770368,"122":-0.022926760026220926,"123":-0.01305472381075226,"124":0.008803193909071742,"125":0.07375700349777198,"126":-0.02625713484858019,"127":0.06820765213878095,"128":0.10800224756378245,"129":-0.09370050349608956,"130":-0.030777642265843144,"131":0.2591050832095354,"132":0.131759152755423,"133":0.22696585174275521,"134":0.004302806217006773,"135":0.06340924254600946,"136":0.04084365219449473,"137":0.15081841550736172,"138":-0.038682134505578544,"139":-0.11421122566938839,"140":0.0042109234508878445,"141":-0.09104040310332422,"142":-0.06748141918340685,"143":-0.1538982315771339,"144":-0.011814061120249192,"145":-0.05082307956651098,"146":0.06433264786380676,"147":-0.03935608811481509,"148":-0.05322803707910527,"149":0.017279762538274852,"150":-0.10234837507351839,"151":0.011885968743236722,"152":-0.012765398040235212,"153":0.04393105953189424,"154":-0.028960537166307025,"155":0.007356508142228688,"156":0.0070904526289682565,"157":-0.010815262281243678,"158":0.048057411676700794,"159":-0.02372587257036884,"160":0.059624789605922136,"161":-0.08266417919623549,"162":0.011276451163499863,"163":-0.08973701097427231,"164":-0.06916474583467536,"165":-0.04479489691279601,"166":0.05869093037252917,"167":-0.061558002730582,"168":-0.02860224277588874,"169":0.04371570166120314,"170":0.13697545267840358,"171":0.005331664823162286,"172":-0.016996188016486075,"173":0.04271052987820505,"174":-0.017351264714710206,"175":0.07713348894238493,"176":-0.04729389568775655,"177":0.06361650519534447,"178":0.0416649135202928,"179":-0.08355902085315085,"180":-0.024325995411773264,"181":0.06518215848073892,"182":-0.040991468872188505,"183":0.09229431966078941,"184":0.026999305752468714,"185":-0.0704656934530159,"186":-0.08737592204465738,"187":0.09138877817785684,"188":-0.07113626625008491,"189":0.05581542286330654,"190":0.07613594706331275,"191":0.007153968732212163}},{"sx":1,"sy":1,"depth":192,"w":{"0":-0.10262560940522575,"1":-0.3282007930243306,"2":-0.02586215324250427,"3":-0.11930186781129545,"4":0.15281961966727725,"5":-0.10825431509398423,"6":-0.1275428638523784,"7":-0.030801781410680025,"8":0.05602020093708937,"9":-0.05688843203707201,"10":-0.11420164061394018,"11":-0.11332954241400335,"12":-0.052039791367745794,"13":-0.043643787857309546,"14":-0.15321754307059085,"15":-0.022790405505601456,"16":-0.048602882878333885,"17":0.009285894523679493,"18":-0.023710241640184364,"19":-0.017028210454792546,"20":-0.037682903633441324,"21":0.06207835267586118,"22":0.0022035910794239817,"23":-0.049940305851034164,"24":-0.0442344990586208,"25":0.07217102540229998,"26":-0.06238523270439327,"27":0.046813346664929055,"28":-0.04068578185453744,"29":0.08006465441400178,"30":0.02845892862508351,"31":-0.05875752979750221,"32":-0.06926106184821434,"33":0.0576698088848796,"34":0.054429607608858316,"35":-0.05104756896673427,"36":-0.027576294810443956,"37":-0.0579364329010026,"38":-0.020219038660307206,"39":0.03577394278343861,"40":-0.024519878189923714,"41":0.006338063259029616,"42":-0.09222048325433732,"43":-0.02796034278623845,"44":0.031673419467773065,"45":0.08080679986440868,"46":-0.05357285444961506,"47":-0.024489623354129953,"48":0.041661572670704396,"49":-0.04989382974846742,"50":-0.04111228369703993,"51":-0.0016286228666903611,"52":0.040577569131826786,"53":0.05302201142759084,"54":0.020769948170669263,"55":0.019340994006008798,"56":-0.11071070197050663,"57":0.05031749051664571,"58":-0.012717120438536768,"59":0.013963938267524354,"60":-0.03365282921443793,"61":-0.06460821108865149,"62":-0.02672780052280619,"63":-0.044588407168162994,"64":0.08810398380872245,"65":-0.02637603991063777,"66":-0.09343885764175834,"67":-0.019149407949450126,"68":0.022133246533948957,"69":0.06053205648303097,"70":-0.02150803565344684,"71":-0.09635118289759818,"72":0.01314745751799073,"73":-0.0880223802070183,"74":0.06233911156638823,"75":-0.08029644773049771,"76":-0.08615508620437849,"77":0.013911349571513375,"78":-0.04417724459367074,"79":-0.048592119378226474,"80":0.09821559824513026,"81":0.017841785468361612,"82":0.0017860908841424428,"83":-0.06143654204445701,"84":0.015727564381937828,"85":0.011666380960021958,"86":-0.04485432105815794,"87":-0.06277572273300187,"88":0.09067459639450429,"89":0.0023574723778813636,"90":0.019190269581088756,"91":-0.021117220847832994,"92":0.003115116903570023,"93":0.07058139664477857,"94":-0.012678026329303796,"95":-0.06783264346741488,"96":-0.016603968647327324,"97":-0.05747071415403104,"98":-0.01828363704792775,"99":-0.034246634958676386,"100":-0.03555826633787805,"101":-0.10586761003812814,"102":0.04669403547334939,"103":-0.0009557342754400579,"104":-0.021473965847600415,"105":0.031998814442671,"106":-0.02806763966351689,"107":-0.024988816611806686,"108":-0.034248410123453636,"109":0.15921501078225314,"110":0.02084425121169866,"111":-0.012513174115218928,"112":-0.018033101050071932,"113":-0.09236232550962452,"114":-0.030381157497347898,"115":-0.02261584537318835,"116":-0.05796806222866437,"117":0.07629130167904129,"118":0.03489723622570819,"119":0.05570081367497795,"120":0.005981899744388629,"121":0.012265345709334286,"122":-0.00947862639831936,"123":0.03117082516865712,"124":0.042100578883067466,"125":-0.047634515723022026,"126":0.08714916524384028,"127":-0.0507113649045919,"128":0.01975765330125102,"129":-0.21786010130721317,"130":0.23230081351598797,"131":0.14406968431870082,"132":-0.07278387052741578,"133":-0.13582639690985562,"134":-0.10502482720386022,"135":-0.07772128879625513,"136":0.07472134472481169,"137":0.011507856028163947,"138":-0.03091278556036691,"139":-0.023821769269554875,"140":0.10930449313846428,"141":-0.14134589956373975,"142":0.011833966342043239,"143":-0.03844095151022794,"144":-0.05515904683180305,"145":-0.061326273121902156,"146":-0.011144981508773749,"147":-0.10785545922938718,"148":-0.06794951337501241,"149":-0.006406493030133838,"150":-0.0125836508662166,"151":-0.07573036733005796,"152":0.007071182586472793,"153":0.016272217899042617,"154":0.049991116047795124,"155":0.06546060792432608,"156":0.02328594308142009,"157":-0.03738135913624281,"158":0.08697953535664675,"159":0.0685832843472249,"160":-0.003440917444941228,"161":0.11044917178432141,"162":-0.01815469063286413,"163":-0.004141318318406275,"164":0.05136685981085407,"165":-0.011193315342563398,"166":-0.04790358126348342,"167":-0.09054207996979739,"168":-0.036575785253241615,"169":0.045248603937543326,"170":0.05430675469993942,"171":0.05723524057899571,"172":-0.036810816373280014,"173":0.02685288045040722,"174":0.03087708409102207,"175":-0.0064366679915996115,"176":0.029645868447634647,"177":0.0017833028331514938,"178":-0.03023970021679116,"179":0.03997142519261492,"180":-0.02130811474753313,"181":0.0035770917438274355,"182":-0.05514621351414462,"183":0.026356746623673568,"184":0.07591448226090836,"185":0.01737687940194142,"186":-0.019390459627465457,"187":-0.05910432315393693,"188":-0.007834028818292421,"189":-0.054525567942637604,"190":0.10057865544452087,"191":-0.01723156036069161}},{"sx":1,"sy":1,"depth":192,"w":{"0":-0.09020792381001298,"1":-0.037510952478159054,"2":0.03496456168548941,"3":-0.04542809946334287,"4":-0.026204242611924288,"5":-0.0662595297268704,"6":-0.08872777636974395,"7":0.03472398292552698,"8":0.018226071666013845,"9":-0.05359010960556118,"10":-0.019198329467659113,"11":-0.0847043092026001,"12":-0.035820226890527364,"13":0.019058341911269063,"14":0.07765741953480443,"15":0.026980680726379793,"16":-0.06950821067323328,"17":0.018130658416555194,"18":0.014107835025119267,"19":-0.07796948421481024,"20":-0.006345092689689919,"21":-0.063624101950405,"22":0.0049895853863754554,"23":-0.05760466721998394,"24":0.05139573374606655,"25":0.0712383952095753,"26":0.1121696019956005,"27":-0.02378991684315982,"28":-0.059105948544416476,"29":-0.030151437340977624,"30":0.029021076194644498,"31":0.014763355232807336,"32":-0.04433325477093428,"33":0.09531402021485545,"34":-0.028132778056102745,"35":0.0322415799960522,"36":0.003134013061082891,"37":0.1304038890918266,"38":-0.1081295817264625,"39":-0.015716374030051695,"40":-0.0488157943994104,"41":-0.025318407512918084,"42":-0.05464258894756285,"43":-0.024999549457286465,"44":0.05243096140806646,"45":0.10337066403721254,"46":-0.04140462299999393,"47":0.048047179803989544,"48":-0.13699212649097164,"49":0.058278567814057776,"50":-0.05923368265151282,"51":0.005031655780591711,"52":0.1134450519340208,"53":0.022824994015368888,"54":0.07477568017926133,"55":0.03383758497614312,"56":-0.021461588412057187,"57":-0.014478074923001006,"58":-0.06291975307595093,"59":-0.08424898754635152,"60":-0.04529576874007297,"61":0.036365433418167496,"62":-0.06117860483400746,"63":0.024227549320120365,"64":0.16976128756761094,"65":-0.01695016790529012,"66":0.057958529596175895,"67":-0.061177888103507314,"68":0.04335397841140334,"69":0.03945196689895198,"70":-0.06979904157155406,"71":0.12186934460511281,"72":0.00794525452652762,"73":0.008047565040018436,"74":0.05576787700233565,"75":0.005012342278839938,"76":0.0794869323313022,"77":-0.04883817462446752,"78":0.026138481123460493,"79":0.042785846489818764,"80":-0.05092550888401752,"81":-0.04127534038023746,"82":0.05936663312388819,"83":0.0312152833808891,"84":-0.041512954236280736,"85":0.07175384660482215,"86":0.0545834255532673,"87":0.011179279088947853,"88":-0.06247847245619397,"89":0.04476112390994597,"90":-0.020471937141443356,"91":-0.014478033057269593,"92":-0.02623433820677685,"93":0.09176830871576439,"94":0.045395787187378606,"95":0.053290579047703734,"96":0.04639768570997646,"97":-0.04121655970622295,"98":-0.024552790676311022,"99":0.03240933596264354,"100":-0.019582701151329793,"101":-0.018316719086592232,"102":-0.008487395941420771,"103":0.02259441425018322,"104":-0.027734320929930275,"105":-0.031508357103974476,"106":-0.05978729846009815,"107":-0.003804942830179426,"108":-0.06063847676311131,"109":-0.09867355075091966,"110":-0.0010890303818461152,"111":-0.11175507907987921,"112":0.06386654536432289,"113":0.045749794359971355,"114":-0.037657701921056205,"115":0.07295530011306052,"116":-0.014330901260937083,"117":0.0028683959889434555,"118":-0.053857221976964825,"119":0.03746038134472796,"120":-0.003075947600055712,"121":0.03787655567993952,"122":-0.07374961337793427,"123":-0.05461054835622592,"124":0.060037115177599486,"125":-0.07558108664026059,"126":-0.045369955787063244,"127":-0.04061344664763834,"128":-0.2875952550409209,"129":0.08269917399228391,"130":0.1479779081211665,"131":0.005903958715456279,"132":0.04423652436319108,"133":-0.04842296055166737,"134":-0.03187755974985748,"135":-0.07634322329007755,"136":0.059677246293910496,"137":-0.14240725061232443,"138":-0.08173672749885423,"139":-0.011995687878161673,"140":0.016909937737949094,"141":0.05251643133798149,"142":0.0031923187133242508,"143":-0.04235331616213707,"144":0.004737678657626903,"145":0.014825424014478748,"146":-0.03157546293986366,"147":-0.06333706377597476,"148":-0.06814927300443674,"149":-0.06897553946088432,"150":-0.04508215128668387,"151":-0.05785384045365591,"152":0.06154619145083438,"153":0.0744716970887269,"154":-0.016089556718317046,"155":-0.04055221226159805,"156":-0.060143002683295345,"157":0.0050184106487188825,"158":0.00037660564609436146,"159":0.01748474003681468,"160":-0.05965646282967871,"161":-0.054531155330563026,"162":-0.046421732377317275,"163":0.008109827668772173,"164":-0.012494521534089057,"165":-0.006202071100231635,"166":-0.07741092526689598,"167":0.03853349532553344,"168":0.016765953460154574,"169":-0.022320858693061524,"170":0.002076838815684761,"171":-0.06896315564632015,"172":-0.011988170184091694,"173":-0.04769107655689174,"174":-0.020101837403486814,"175":-0.01014869598454626,"176":0.100301729138953,"177":0.04706923269806088,"178":-0.03888206391698202,"179":0.023976919058025473,"180":0.033425832377340224,"181":-0.059812259991069226,"182":-0.005481606829564491,"183":-0.03975169609127604,"184":-0.0461412602859657,"185":-0.08709393536235603,"186":-0.01455562473320916,"187":0.004688529346111469,"188":-0.09235265743496364,"189":0.004269765752411587,"190":-0.038518860093818226,"191":0.020328422048028764}},{"sx":1,"sy":1,"depth":192,"w":{"0":-0.05225857390217188,"1":0.008314933754558575,"2":-0.34007356348525286,"3":-0.30752277732493816,"4":-0.1405800296112952,"5":-0.16020442185419706,"6":-0.0633180338097807,"7":-0.23037806248341464,"8":-0.09082161313646037,"9":-0.07671657050754174,"10":-0.08510997592401563,"11":-0.06388924487172735,"12":-0.12448854266908041,"13":-0.10041073542547567,"14":-0.058366256632891696,"15":-0.11606496787425653,"16":-0.06216609244510837,"17":-0.13884558363910185,"18":-0.12951839231150306,"19":0.005079344588073686,"20":-0.060086547356404355,"21":-0.06518188321437637,"22":0.022863491019291634,"23":-0.01561789419380801,"24":0.02782670768529386,"25":-0.11491575338491096,"26":-0.015169476449579394,"27":0.030139642711189393,"28":-0.09043667537710857,"29":0.027467908824444366,"30":0.02688383876979665,"31":-0.07197118933279985,"32":-0.04118546763961282,"33":0.10426993575615551,"34":-0.03029056157437512,"35":-0.04492284929854895,"36":-0.04599493529787532,"37":-0.049532096259851284,"38":-0.04354790641610692,"39":0.012642480290961716,"40":-0.037637614671923184,"41":0.034939697173848414,"42":0.125875116184471,"43":-0.035861354538233796,"44":-0.03664266724304956,"45":0.010190199772324904,"46":0.013712087872675732,"47":0.018909247896752305,"48":0.012741210002447951,"49":0.011098872202038918,"50":-0.05736611548831741,"51":0.08337485365712526,"52":0.07834228195406807,"53":0.002014355903224862,"54":0.05235625879707251,"55":0.002727537544690769,"56":0.04795500768651246,"57":0.05363984075876264,"58":-0.06708901289527922,"59":-0.1722429996268791,"60":0.05582871444827292,"61":-0.011923514744589442,"62":0.05617987367870786,"63":0.05159451388869884,"64":-0.08440026536047579,"65":0.07219869347117357,"66":-0.010056260182041843,"67":0.09240334664985966,"68":0.11188157210353376,"69":0.13386459716749827,"70":0.08491928310022179,"71":0.009331205463082361,"72":0.2146941801643394,"73":0.13387478281675236,"74":0.10253430966673811,"75":-0.05068497108757845,"76":0.0398145715149162,"77":0.06344824259643468,"78":0.03540819720573289,"79":0.06325018883918032,"80":0.011571259816998743,"81":0.006479754774944352,"82":0.14086844968964776,"83":-0.0060496730244266545,"84":-0.033300555451955746,"85":-0.0138088818403136,"86":-0.0034642050651810703,"87":-0.013948295566510161,"88":-0.033501310922301526,"89":0.0722206793251705,"90":-0.04788327171989483,"91":-0.07565431005982137,"92":0.07920450306874409,"93":-0.06661369644044443,"94":0.10563302833833432,"95":0.044523350737702236,"96":-0.1503193615844402,"97":-0.09358114680513102,"98":-0.07241949893391722,"99":-0.08320181204946078,"100":-0.10821704063438399,"101":-0.020302051258048466,"102":0.04885853647635017,"103":-0.07941981979676027,"104":-0.06949556479915368,"105":0.020717993453773217,"106":-0.08058045022782385,"107":0.020536761439691686,"108":-0.021921876541016922,"109":0.07409999381613606,"110":-0.08903621934571686,"111":-0.008695000131699425,"112":-0.02963827575125127,"113":-0.09480010854124281,"114":0.06836496686864922,"115":0.05847281825485609,"116":-0.018646217091451228,"117":0.04777790793504243,"118":-0.12876587286291336,"119":-0.02712940750641512,"120":0.05390681174138775,"121":-0.03583375439443259,"122":-0.04042291917239483,"123":0.042097859009625115,"124":0.006992873135032399,"125":0.0701824817287071,"126":-0.04846898971291274,"127":-0.05053067962261673,"128":0.09332086803622253,"129":-0.11402119221685143,"130":-0.13307960585605869,"131":0.4677460042828158,"132":0.1845454859062688,"133":0.27668563934387214,"134":0.038668490741465444,"135":0.13587717172910338,"136":0.07997649372681706,"137":0.1466088705265301,"138":-0.10999270654875823,"139":-0.18136890914647583,"140":-0.0020275284187286965,"141":-0.13600857052071502,"142":-0.17380131288631584,"143":-0.14115615204617407,"144":-0.1370758446424972,"145":-0.030131748745191245,"146":0.06378202603534985,"147":-0.01913922328599907,"148":-0.0631984795987157,"149":-0.08739281434790636,"150":-0.06363508490193674,"151":-0.08877047877611904,"152":-0.06835066502904348,"153":0.015738218238621742,"154":-0.12309859977158519,"155":-0.08845829838915034,"156":0.07616476570874736,"157":-0.06101869653167024,"158":-0.09415865168013411,"159":0.050486310772921233,"160":0.06611150655270126,"161":0.06981021971318284,"162":0.017439432614369595,"163":0.021761520512643878,"164":-0.08491387514960583,"165":0.023812867593148643,"166":-0.003255096688658297,"167":-0.12497938481909908,"168":-0.05700952588313516,"169":0.08940058651176232,"170":0.08438348476590285,"171":0.03210153801774049,"172":0.03667377212336794,"173":0.03339356274576979,"174":-0.018088801241648,"175":-0.010997905743416227,"176":-0.06158302713013915,"177":0.040240393656511615,"178":-0.02641026970990499,"179":-0.01746910832975972,"180":-0.05605215199341265,"181":0.11378531671398572,"182":0.014321191036644195,"183":0.03640961844371895,"184":-0.02570329169193995,"185":-0.04167192414624095,"186":-0.027069625300520275,"187":-0.07634341282783165,"188":0.0022616565759692223,"189":-0.04583861167822818,"190":0.01756249299727984,"191":0.015918783810793112}},{"sx":1,"sy":1,"depth":192,"w":{"0":-0.005672096832841346,"1":-0.10359852469928298,"2":0.08782613414826713,"3":0.26747312157710346,"4":0.056900033281313836,"5":-0.0008579517808003016,"6":0.04549845548389717,"7":-0.04949714677665046,"8":-0.019125970571062027,"9":0.12049203135298518,"10":0.057760505600024825,"11":-0.08786677638197575,"12":-0.008907262261224924,"13":-0.044737107771784766,"14":-0.06949769265428822,"15":0.01668341988477151,"16":-0.03233779136251261,"17":0.019345975041596426,"18":-0.0026043957899734693,"19":0.011586964045161128,"20":-0.051666873550287866,"21":0.03302649499468575,"22":-0.047861601414537075,"23":-0.010197942291965868,"24":-0.07733328291766879,"25":0.02407669455849702,"26":-0.10222900325696,"27":0.0592419154916415,"28":-0.05130965958830929,"29":-0.06707334566871849,"30":0.03349305732267057,"31":0.0213374004169013,"32":-0.02263929165642062,"33":-0.1088114420278614,"34":-0.030433245792101663,"35":-0.0436990223708006,"36":-0.018203652678448097,"37":0.08589572169688035,"38":0.02242916580865504,"39":0.088096304679835,"40":-0.056269312466779624,"41":0.008095543546671916,"42":0.0382246726499531,"43":0.0030033596879107762,"44":-0.008357417568603056,"45":0.0513041596526811,"46":-0.03248286659636276,"47":-0.013216611015580975,"48":0.08278710299210848,"49":0.006335907677995639,"50":0.041029469595031495,"51":0.05430563438601598,"52":0.03632502173945705,"53":-0.03345581176467214,"54":0.06873558105080146,"55":0.012112250648113807,"56":0.09579782098094479,"57":0.06953239923370703,"58":-0.02231786007528764,"59":-0.003040303269990536,"60":0.0014505901895676464,"61":0.007393861904143777,"62":0.01128904769968191,"63":0.11930503330884487,"64":0.1229097964454768,"65":0.04173965493100869,"66":0.003185499118810773,"67":0.022144077680785818,"68":-0.14272078726139084,"69":0.034903890281064776,"70":0.05470821896365627,"71":-0.008635837125274696,"72":-0.008769014185994075,"73":-0.033740412181317625,"74":0.06048767896428989,"75":-0.043416331934565705,"76":-0.005149470219510414,"77":0.004465246595605918,"78":0.033785330461842546,"79":-0.016848694219007025,"80":-0.14249260209972409,"81":0.02351635386188968,"82":0.061178951892704045,"83":-0.035354141876122076,"84":0.08478400193636791,"85":-0.04036181926218249,"86":-0.017736731321834193,"87":-0.0648875439198312,"88":-0.047628036380325096,"89":0.0320838511674683,"90":0.03298930262662651,"91":0.003919765673889542,"92":-0.16162436760117285,"93":0.0013630978612815753,"94":0.09038573167078204,"95":0.02857035666146197,"96":0.015674982846306935,"97":0.004418521675797058,"98":0.033444220483119846,"99":0.052823249142307425,"100":0.025286049956788036,"101":0.03039714935719528,"102":-0.08810312700547518,"103":-0.08368967293834487,"104":-0.0818082641108814,"105":0.0036249741759794654,"106":-0.03621107641337824,"107":-0.02709966216690366,"108":0.004475899365812485,"109":-0.017102857764914502,"110":0.0003788025518375021,"111":0.0326927109556805,"112":-0.17047817683810979,"113":0.00670554952502418,"114":0.07613865378655663,"115":-0.09129120615320498,"116":0.028020231873972266,"117":-0.04605583864623853,"118":-0.02040459855609165,"119":0.0492213362268121,"120":0.010650197154277457,"121":0.0486916337693057,"122":-0.0890573013185884,"123":0.009597382574165187,"124":-0.11731712886460137,"125":0.06771097641950938,"126":0.019352882872112842,"127":0.03939563132145369,"128":-0.006637565102495086,"129":-0.056089459922822195,"130":0.03682473698859607,"131":-0.1313349183276106,"132":0.06748930385758636,"133":0.07068690896165437,"134":-0.07968177757442227,"135":0.017566885973339517,"136":-0.04027966580360325,"137":-0.04329567159353322,"138":-0.08051704748568905,"139":-0.11216160733300201,"140":-0.03046398526593247,"141":-0.08595085646842261,"142":-0.08096155542938313,"143":-0.042947913122269074,"144":-0.008826286725845615,"145":-0.1721663318158162,"146":-0.05317354671738569,"147":0.08116543501950581,"148":0.044031193924049264,"149":-0.1457285925674634,"150":-0.07686177407718636,"151":0.03176222324377107,"152":0.047322505355110525,"153":0.029640260405289637,"154":0.042799281615116,"155":0.015653993873219706,"156":0.039455330202765315,"157":-0.03836165936042838,"158":0.055558637028507045,"159":-0.018997395423817138,"160":0.023490385641752265,"161":0.09790942222848859,"162":0.05506247282394187,"163":0.03456702578660397,"164":-0.032624396358758384,"165":-0.03373950876967932,"166":-0.028841532564273017,"167":-0.032734780856893235,"168":0.01153651933323717,"169":-0.05119158032861386,"170":-0.006897423667335996,"171":-0.0500889527777555,"172":-0.021341929264031397,"173":0.07503240661549669,"174":0.02540869678328065,"175":0.06670941467261753,"176":0.044146636741024085,"177":-0.07129981607992195,"178":-0.01867467995869099,"179":-0.03932536226175431,"180":0.052034024759711986,"181":0.05207475487693038,"182":0.06257420217238997,"183":-0.0554444655717873,"184":0.0680888317604324,"185":0.013846570235288078,"186":0.008986105270823842,"187":-0.036452105460483594,"188":-0.01887110185064042,"189":0.04959989544065586,"190":-0.06358480813237219,"191":-0.02345390626379512}},{"sx":1,"sy":1,"depth":192,"w":{"0":-0.11918744519527681,"1":-0.03008830061463972,"2":0.08168590935384984,"3":0.30250355317380034,"4":0.21368429697177177,"5":0.05161587476645644,"6":0.16850172060873558,"7":0.17630350852319215,"8":0.13746576996575655,"9":0.16738338607267528,"10":0.0878699567315513,"11":-0.028778838726024176,"12":0.10978739193770794,"13":0.038624604066539385,"14":0.08290292218491385,"15":0.004031699662817682,"16":-0.038223494878961914,"17":0.020262369921139434,"18":-0.020404090641898753,"19":0.034089649089710586,"20":0.01496486943517076,"21":0.02325622748879821,"22":-0.0431593444186667,"23":0.05815981711201422,"24":-0.033787964370797396,"25":0.1387265185419621,"26":-0.02029033510827773,"27":0.00852277342936938,"28":-0.04772633024316953,"29":-0.06135760996421813,"30":-0.010287475389475751,"31":-0.06194707839104389,"32":0.05892915257000356,"33":-0.05295631343442792,"34":-0.034226281820748876,"35":0.031127598831189405,"36":0.028272131996123086,"37":0.01402596442998681,"38":-0.05363667004204904,"39":-0.07532034445763928,"40":0.004095161574792124,"41":-0.0157601148266758,"42":-0.005300445712420255,"43":-0.07212072144770253,"44":-0.026838477139163715,"45":-0.03826711302502287,"46":-0.08134152118879429,"47":-0.045790457716056505,"48":-0.07315193973700271,"49":-0.06033042224183989,"50":-0.07624791147940092,"51":-0.048224393621318744,"52":-0.008044730364095951,"53":0.039105800194853595,"54":0.002260325665200784,"55":-0.015589874193312496,"56":-0.12230355097941013,"57":-0.04410227264698894,"58":-0.03908905853616507,"59":-0.006517975087815403,"60":0.04771782480125517,"61":-0.017178128999514923,"62":0.011966887335114747,"63":0.026890547818741513,"64":0.0037710452530206853,"65":-0.010586705460464354,"66":-0.0492520091951783,"67":-0.015904648470915106,"68":0.08113362175931596,"69":0.01895583361365887,"70":0.07586427994896847,"71":0.0924210627969743,"72":-0.039758476711391745,"73":-0.040430949611551574,"74":-0.0003231795255152212,"75":0.034001018003346754,"76":0.0035445434763274816,"77":0.026212311094183344,"78":-0.14838769212149722,"79":-0.008068119416191472,"80":-0.1097394583130746,"81":0.001984888128414495,"82":0.0803240701282946,"83":0.03209179554387114,"84":-0.08389180454037176,"85":-0.05309443384265888,"86":0.03797257502666942,"87":0.049434859802948455,"88":0.10688932401040785,"89":-0.011250788134344474,"90":-0.10519667389618809,"91":0.16508347002407844,"92":-0.09589219554486554,"93":-0.04172972941749083,"94":0.03569058602596899,"95":-0.047051340279362974,"96":0.010946280888491668,"97":-0.12287444189028808,"98":-0.08069045624471538,"99":0.0043060898146578255,"100":0.052103914556427496,"101":-0.05467117764938489,"102":-0.0714822210674622,"103":-0.02702126802448638,"104":0.008379728031485678,"105":-0.10257644107831014,"106":0.0713669570527662,"107":-0.06236663374324933,"108":-0.003271424327326328,"109":-0.011119804904038317,"110":0.03406841985293236,"111":0.037343419925373364,"112":-0.013687224453920397,"113":0.04812419689317024,"114":-0.0892703836962742,"115":-0.023721782488157,"116":0.07024026643675374,"117":0.07082903338490877,"118":0.004011815575455179,"119":0.06861460425000303,"120":0.000049261967162254636,"121":0.11432238992386361,"122":0.0286749861008618,"123":-0.04550180532882125,"124":0.03987011858345712,"125":0.03051003304197701,"126":0.009803874685806844,"127":-0.051737898245206464,"128":-0.029950634278234,"129":-0.058676760547410015,"130":-0.21982939627639822,"131":-0.31969384605766366,"132":-0.2539226964841441,"133":-0.16325012073057169,"134":-0.09939054893385924,"135":-0.0590009508649068,"136":-0.07852563776879296,"137":-0.07793638324038558,"138":0.019740134593880663,"139":0.0429440618004075,"140":-0.011004244316335756,"141":-0.022223076487610797,"142":-0.03614576596143829,"143":-0.023546741707131568,"144":-0.06110522701225443,"145":-0.0420196202523241,"146":0.014031111560476347,"147":-0.06941134686588142,"148":-0.02160489939596103,"149":-0.02447400948453094,"150":-0.05009180826421064,"151":-0.10920094856811975,"152":0.04452285712308609,"153":0.09865134464023546,"154":-0.02352234353671406,"155":0.010470440688972868,"156":0.004519521890111062,"157":0.021831825907289108,"158":-0.026292752895487857,"159":0.08764023449693863,"160":-0.08257536406148928,"161":0.0025508113790924363,"162":0.004584402754867603,"163":-0.006939454745729089,"164":0.06224005327310608,"165":0.030424951821423386,"166":-0.057178456268443464,"167":-0.11214435295367721,"168":0.009211087844407315,"169":-0.1295103431533058,"170":-0.008522632291774572,"171":0.029706473787492155,"172":-0.04905997945567974,"173":-0.035141363443139825,"174":-0.08694996107800315,"175":0.03983455314602147,"176":-0.02405937089493611,"177":-0.09398489067810023,"178":-0.05387003073521272,"179":-0.033737459756766106,"180":0.02953769317426572,"181":-0.02239463281340179,"182":-0.0112653512655971,"183":0.006912876962032089,"184":-0.04071841224410888,"185":0.00794128601465379,"186":-0.03656151882462519,"187":-0.01982576843150865,"188":-0.03280483858209536,"189":-0.028608895759838583,"190":0.04104598802853445,"191":0.1040726662408553}},{"sx":1,"sy":1,"depth":192,"w":{"0":-0.026196418299174982,"1":0.026936267679793794,"2":-0.19436738962160752,"3":-0.22251473777411607,"4":-0.09829208144443631,"5":0.033071419201515316,"6":-0.18938735444537697,"7":-0.14635851749279502,"8":-0.15722399772055132,"9":-0.064578637148384,"10":-0.028931657218266526,"11":-0.06976103859540579,"12":-0.009358481753806918,"13":-0.02467622045720688,"14":0.01299613932196156,"15":0.003397405558954405,"16":0.01611695115106134,"17":-0.07099096425301535,"18":-0.07471607315762892,"19":-0.08630177676236116,"20":0.019663923168856654,"21":0.029533797426740505,"22":-0.009082562441519792,"23":0.03213180828885537,"24":-0.04016780295668587,"25":-0.006779190273565353,"26":0.05137454319642214,"27":-0.061332913388118915,"28":0.0587109222903904,"29":0.06647225030146027,"30":-0.08412113165742499,"31":0.02774852176047324,"32":-0.013405790531753158,"33":0.01939943011543781,"34":-0.02450063295936679,"35":0.086561200620657,"36":-0.04221605818351626,"37":0.03442545694165543,"38":-0.07397659784260337,"39":-0.045714879343668406,"40":0.06044279219898487,"41":-0.02104063593459644,"42":0.030304104831669704,"43":0.09315323831671388,"44":-0.01892962808858206,"45":0.021009336585228914,"46":0.044633551730016305,"47":0.0690919665236476,"48":0.020766248429052992,"49":-0.06600079666493011,"50":0.09841828584058346,"51":-0.05260921877969002,"52":-0.014200523068054164,"53":-0.04607203748256746,"54":0.0037924070892237454,"55":-0.0966148163600166,"56":-0.03600192483357231,"57":0.011069699534399553,"58":-0.0781782509572832,"59":-0.08782891370562962,"60":-0.04971004188379766,"61":-0.02566816025933525,"62":-0.02857691325449373,"63":0.08755235545877273,"64":-0.05586348417830333,"65":0.08222715367871897,"66":0.10401766106626077,"67":0.14328345847903878,"68":0.0016671082178005545,"69":-0.021799144660736663,"70":0.13238870724991691,"71":0.06000665513487835,"72":0.0350097327566579,"73":0.015356305476237238,"74":0.013048569409785746,"75":0.05760145414411275,"76":-0.010667806169045294,"77":0.11642179895809353,"78":0.033299844719922776,"79":0.10805301754302436,"80":0.01656407515217988,"81":0.03329569289970772,"82":0.06084231034252462,"83":0.08437551955221109,"84":0.09107896351942005,"85":0.10320163136096512,"86":-0.017012426005046866,"87":-0.014828853703508846,"88":0.037436934813958656,"89":0.05753409070757054,"90":-0.06381207141188414,"91":-0.13142917756129238,"92":0.08317872188428192,"93":-0.05484024281074105,"94":0.01829670943487538,"95":0.04081242813948407,"96":-0.03635450569920958,"97":0.02357939241352367,"98":0.10347853584313883,"99":0.056545255270258096,"100":-0.050093934492815295,"101":-0.02372948637738214,"102":0.046947847064925045,"103":0.007513921155387755,"104":-0.025548579882855218,"105":0.13386965429793482,"106":0.041184965260845696,"107":0.028116007194895633,"108":0.08378695182464323,"109":-0.005569787421574056,"110":0.003484789322713175,"111":0.11078875431728205,"112":-0.11300317362301321,"113":0.03462841747783852,"114":-0.03741763930690431,"115":-0.05448100344204788,"116":0.0848240635501764,"117":0.03225164183276659,"118":0.025907584759031144,"119":-0.07222864088744496,"120":0.008230749272430558,"121":-0.01073603153549491,"122":-0.0513631013491743,"123":-0.03479205343303986,"124":-0.04201592880190246,"125":0.06239897676344438,"126":0.008598027824034007,"127":-0.059267935143928946,"128":0.019312509196510175,"129":0.001399173909051238,"130":-0.09128449661078107,"131":0.021756364700556013,"132":0.15203907282992177,"133":0.03271621005012874,"134":0.08593305859188617,"135":0.04973259821324092,"136":0.017168439723338907,"137":0.09860480012713663,"138":-0.020359119865118628,"139":0.022253297784299242,"140":0.09809669148840813,"141":0.015699638448199868,"142":-0.04497888782521329,"143":0.0037326088686165907,"144":-0.023230315417789815,"145":-0.0017771333730704066,"146":0.02616558589038951,"147":0.03840383013880481,"148":0.007561205169980676,"149":0.08250059136295937,"150":0.08334717137042401,"151":0.024297244041056657,"152":0.04759433961362175,"153":0.021504988801556667,"154":0.045440474393382585,"155":0.012553615034754233,"156":-0.018528361794014,"157":0.07668311549634538,"158":0.020007113859854847,"159":0.0746913883442328,"160":0.0073464795313059475,"161":-0.023593468500821585,"162":0.04904071676262678,"163":-0.022433559760574442,"164":-0.011657012288347108,"165":-0.02489519365416867,"166":-0.004839859120389802,"167":0.002702961146782733,"168":0.08091684890873226,"169":0.060331670989550557,"170":0.0578896128341474,"171":-0.026410161647129955,"172":0.024745333256896707,"173":-0.021080329331151205,"174":-0.08326811812164084,"175":0.07202658170502955,"176":0.027707314199934413,"177":-0.04451093201753097,"178":0.04588940827332196,"179":-0.06408002944678341,"180":0.06514938301711326,"181":-0.03619256158682173,"182":0.026724116609641968,"183":0.015245869056337,"184":-0.013831453917884639,"185":0.008364908382895272,"186":0.07302251271984883,"187":0.0081436749694099,"188":-0.0031279216426095624,"189":0.0025947774070991456,"190":0.0023775765869885534,"191":-0.09680155059245442}},{"sx":1,"sy":1,"depth":192,"w":{"0":0.053671731395533245,"1":0.043812215950946753,"2":-0.12048343562613542,"3":-0.1452869392912996,"4":-0.05175704301525178,"5":-0.04717922483596945,"6":-0.13359199520552192,"7":-0.07161591325592094,"8":0.023704806318526433,"9":-0.06590697895776895,"10":0.03263834668027018,"11":-0.014279996609917875,"12":-0.043763532040715404,"13":0.02541243770022744,"14":0.03483013848226834,"15":0.008424012297969007,"16":0.0085274037239946,"17":0.0019517943499600566,"18":0.025611395947242956,"19":-0.042530757061158136,"20":0.02581761099966929,"21":0.005639977445526936,"22":-0.01462038534011287,"23":-0.03812057072254442,"24":-0.05848676331319013,"25":-0.033625941280318546,"26":0.08563304460266721,"27":-0.08701090908132425,"28":-0.011792617410478538,"29":-0.007810438728043799,"30":-0.05218866190946565,"31":0.007042487112464607,"32":0.042896151684906896,"33":-0.0251938465840886,"34":-0.019914098539398323,"35":0.14302242729522535,"36":0.12251551039967491,"37":0.04545903646243995,"38":-0.011511064135345557,"39":0.004393994632058408,"40":0.0033315514335618937,"41":-0.0943052702213849,"42":-0.004199885900339401,"43":-0.05082823621035235,"44":-0.012471650287828602,"45":0.041148338442061144,"46":0.057261144440854395,"47":-0.019397005106584594,"48":0.05866339153008365,"49":-0.03670927892866566,"50":0.02410772377968576,"51":0.08803895688554236,"52":0.018517472938014097,"53":0.020383858029214597,"54":-0.09566214305060619,"55":0.040713074447326046,"56":0.02329683767274743,"57":0.005063529112374306,"58":-0.045361513153791395,"59":-0.04582819486285496,"60":-0.00290051341760569,"61":0.05680343787617004,"62":0.10691844989970609,"63":0.04425760780172301,"64":-0.1474147435551278,"65":0.019921323207231206,"66":-0.03755823546650056,"67":0.0710636043119288,"68":0.03006617722858192,"69":-0.03989071284613312,"70":0.06811431165260677,"71":0.009173216826861669,"72":0.07669135942528298,"73":-0.1168381701619048,"74":0.00438651971263455,"75":0.028457311679350075,"76":0.030866376420611817,"77":0.006276645025233964,"78":-0.03549585423410459,"79":-0.0394420502822956,"80":0.07039877094622685,"81":-0.041107509505762474,"82":0.06122259299386076,"83":0.048809838433926556,"84":0.0031591216220694007,"85":-0.08536305920501831,"86":0.01658748851357209,"87":0.004137432550412215,"88":0.014538813913920824,"89":-0.03335640695497714,"90":-0.06693999030470128,"91":0.0163206588889641,"92":0.044313827755635644,"93":-0.052737516933690165,"94":-0.006239596928743798,"95":0.04728855502279831,"96":0.0064978952347968634,"97":0.019124252090106833,"98":-0.030564962887746527,"99":0.0075702800146992735,"100":-0.03353539488577095,"101":0.03640516176262933,"102":-0.002855089966193829,"103":-0.028956314486525796,"104":-0.028104612874722795,"105":0.030061746796633072,"106":0.05392627956456445,"107":0.054084732575755495,"108":0.0011009818376368542,"109":0.052820696271960954,"110":0.04831100072579918,"111":-0.014684467549823565,"112":0.003611541396235745,"113":-0.047596638871615055,"114":-0.10570045156156117,"115":0.052619648842195894,"116":-0.033944998383141384,"117":-0.060795140092828076,"118":0.008907085613350163,"119":-0.012191327699190464,"120":0.03701915570760135,"121":0.04837110680966671,"122":-0.038695318294090286,"123":0.05997727907963009,"124":0.030120204131307577,"125":-0.025198844999308866,"126":0.007418846289859931,"127":-0.13762633762328805,"128":0.0970445450766528,"129":0.11892997327755395,"130":0.0633896905505684,"131":0.23080998789564824,"132":0.06464117738211043,"133":0.07267987825809945,"134":-0.04947116407632341,"135":-0.01793377515939905,"136":0.05772785587689647,"137":-0.04025141592318818,"138":-0.028044417159915756,"139":0.04079539383198936,"140":0.018242900054562874,"141":-0.015228887351298393,"142":-0.027905819474190085,"143":0.1046347135545888,"144":-0.005476946974075476,"145":-0.028456862278495504,"146":-0.017424127639401644,"147":-0.09029846952035862,"148":-0.06274545238081089,"149":-0.10831178170679842,"150":0.023339829065304477,"151":0.06445834158390695,"152":0.05741377021676035,"153":0.021288494133825976,"154":-0.07320331794330306,"155":-0.08954291511435433,"156":0.025342759530962065,"157":-0.040768242126666014,"158":-0.014125390030752713,"159":-0.04689048199678564,"160":0.1302511214299212,"161":0.01172411381138608,"162":-0.04406043061182637,"163":-0.01410199074480791,"164":0.04440862290944976,"165":0.04062045171248946,"166":0.005302538421444431,"167":0.07022051078443545,"168":-0.0305446109564318,"169":-0.0006161956347203127,"170":0.01580914708562267,"171":0.02367850486814665,"172":0.09471196749576712,"173":0.08153323579866528,"174":0.055743859387739965,"175":0.037059911106246395,"176":0.03485076253438882,"177":0.030682338083555832,"178":0.03693657195726672,"179":0.0065424429500120255,"180":-0.04486195914255989,"181":0.024397005780045146,"182":-0.06482212068126693,"183":-0.017944930910424386,"184":0.0014905134493644928,"185":0.01635131729145611,"186":0.012388334274173789,"187":0.041768102228717144,"188":0.026367507687062013,"189":-0.020430326356281503,"190":-0.02105792560836152,"191":-0.028068862512945814}},{"sx":1,"sy":1,"depth":192,"w":{"0":0.015541509003947464,"1":0.18028929541704142,"2":-0.17870679876166295,"3":-0.4972944859697097,"4":-0.22006177078420422,"5":-0.10083558506993716,"6":-0.11556665891870539,"7":-0.08382271920775561,"8":-0.19655052830685252,"9":-0.09148618765346367,"10":-0.14142116528031676,"11":0.04180249163217798,"12":0.0663168355202378,"13":0.14583254558663208,"14":-0.0020927706396284456,"15":-0.0347020423480719,"16":-0.03199604801273149,"17":0.11785061034265923,"18":-0.09110082582968816,"19":-0.0324341532823977,"20":-0.0690204553438559,"21":-0.04253072521601355,"22":0.08197661694637697,"23":-0.08140703463629859,"24":-0.01690439496247957,"25":-0.04277797897826455,"26":-0.008792763546098892,"27":-0.005689084086745911,"28":-0.08307582797041586,"29":-0.01056583064618212,"30":-0.07085540937118302,"31":0.027163810211501938,"32":0.05497310348431784,"33":0.013007762032574897,"34":0.005850946091635461,"35":0.059664983102036336,"36":0.006984653713994936,"37":0.011470060699310971,"38":0.02369050134644568,"39":-0.07431697584278094,"40":0.10057473830661427,"41":-0.020261935258468405,"42":-0.06287321692614957,"43":-0.04578122957027453,"44":0.04480520638792535,"45":0.07445179153929656,"46":-0.08091326203664721,"47":0.10543769127129586,"48":-0.014642123095010753,"49":-0.09782479289400538,"50":-0.024456465449783468,"51":-0.002538381248017073,"52":-0.021541392396525253,"53":-0.028514466132206068,"54":-0.03442115517235159,"55":-0.05528459930630302,"56":-0.015479967341487934,"57":-0.03760654089822268,"58":-0.03247852495628718,"59":-0.0258892343101625,"60":-0.03617973777595961,"61":0.057620127033675826,"62":0.028534894264922252,"63":-5.359502559913973e-7,"64":-0.09552756718312654,"65":-0.06734757392237666,"66":0.005196218907423032,"67":-0.08649975115829778,"68":0.15129662798240473,"69":-0.0602496770538238,"70":0.03760395513452352,"71":-0.09626877432973109,"72":-0.04782502559277368,"73":0.12070578115814057,"74":-0.06954697595026776,"75":0.05514900230146546,"76":0.08386135937296339,"77":-0.08340323685296382,"78":-0.04647088684747248,"79":0.07168965229616255,"80":-0.01966782632410137,"81":0.011930226061110976,"82":0.05894335382905372,"83":0.003432004211101962,"84":-0.03999217018355399,"85":0.08485374114063365,"86":0.12130803759901485,"87":0.03566276266743788,"88":-0.06696747812517015,"89":-0.015488666721317304,"90":0.004295384503262077,"91":-0.03919571989762086,"92":0.040143795763935106,"93":0.026940395501478684,"94":-0.02067007736223108,"95":-0.006366337854365864,"96":0.01596559483864891,"97":0.009209114591130534,"98":0.0005015206726673637,"99":-0.07304750819815096,"100":-0.009396552292353994,"101":-0.008520289054256608,"102":0.02827421178902031,"103":-0.02458495997446515,"104":0.030422806105640535,"105":-0.038035473246186884,"106":-0.0020280483249935856,"107":-0.06923154175380143,"108":0.008787995118020633,"109":0.05414138641406657,"110":-0.04338662513788378,"111":-0.11928879029373582,"112":-0.02961523957817908,"113":0.025523969589187605,"114":-0.02363125597917547,"115":-0.021724029128577682,"116":0.04977861796889631,"117":-0.07357919530111906,"118":0.053806426529144726,"119":0.09441767815194513,"120":0.007079683948240196,"121":0.03665028261107588,"122":-0.024369623013352767,"123":0.042711950927412805,"124":0.08332943344997834,"125":-0.0698390442102966,"126":-0.03184965483837544,"127":0.04293760374361029,"128":0.033115314668507326,"129":0.2607451310292274,"130":-0.16484121046795408,"131":0.14508696258701667,"132":0.12505184594711927,"133":0.06643488715709388,"134":0.02288467202049456,"135":0.16104387597440936,"136":0.21353738619995746,"137":0.06664318792414085,"138":0.3008865469223502,"139":0.10543284372151315,"140":0.07546111509810403,"141":0.1596216116496764,"142":0.11750683359628111,"143":-0.09908179712476893,"144":-0.01518790738671616,"145":0.11950912523385658,"146":-0.040744208361313,"147":0.09008932683923668,"148":0.16672149299646197,"149":0.12344876084487952,"150":0.1027262229924053,"151":-0.027848886620279647,"152":-0.028716239011931224,"153":-0.008490946694285375,"154":0.035425362920455734,"155":0.002392624183131357,"156":0.06078993335003926,"157":-0.015522985380025656,"158":-0.09617755597623512,"159":0.01233442201790682,"160":0.03608839785426444,"161":-0.045857008089757824,"162":0.02413811201628389,"163":-0.026041989100682977,"164":0.003053954271649069,"165":-0.06805201658221186,"166":-0.03452221470082724,"167":0.024581331320402744,"168":-0.032839273606556724,"169":-0.04445100806697289,"170":0.005772993712886473,"171":0.09033706969275572,"172":0.028982033182391308,"173":0.044315204974480646,"174":-0.015014559854586529,"175":0.023225367362738784,"176":-0.04843415717474965,"177":-0.08410150950804192,"178":-0.002601866271409291,"179":-0.049866399322131126,"180":0.0016594981283634548,"181":0.06163453122899496,"182":-0.02094985583188807,"183":-0.04864835514205875,"184":0.07640218728711687,"185":0.016520355439728,"186":0.00272210884740476,"187":0.10606620970067868,"188":-0.14932366780053374,"189":-0.036426074641237885,"190":-0.06411839044817817,"191":0.02144897132751223}},{"sx":1,"sy":1,"depth":192,"w":{"0":0.053360886242870983,"1":-0.023904412409980202,"2":-0.21515104127377926,"3":-0.09490257308625769,"4":-0.11145896458517583,"5":-0.09269811745021755,"6":-0.021482095125395336,"7":-0.03639783876646757,"8":-0.02338510366614551,"9":-0.03021967430544184,"10":-0.05807059289266306,"11":0.017697691078942236,"12":-0.07522291741321553,"13":0.05234341763020187,"14":0.030709082042073586,"15":0.0335591814759508,"16":0.03058390143928003,"17":0.06974681483937362,"18":-0.046857737075520316,"19":-0.06469769845698468,"20":0.10641274323707632,"21":-0.023326555868915955,"22":0.011619786717576732,"23":-0.06237251046088142,"24":-0.003380280782424936,"25":0.01410409470296741,"26":0.019784667610233196,"27":-0.006873463895254276,"28":-0.015060578425060414,"29":-0.07251962852856687,"30":-0.0009979533932987803,"31":-0.08757844608937657,"32":-0.03465333101855178,"33":0.054926509761923446,"34":0.07472844314353218,"35":-0.003429392667756509,"36":0.05956357547558131,"37":-0.0024632290867084004,"38":0.024203826069882934,"39":0.032518679164440255,"40":0.003309733412656069,"41":0.03864564206884257,"42":-0.027190682360367813,"43":-0.012022521755057894,"44":-0.15232449329474282,"45":-0.05012449312991667,"46":-0.02231096950878004,"47":-0.012578110674060427,"48":-0.0067028686976415884,"49":-0.016586166737141014,"50":-0.00014190474885557135,"51":-0.005195203901092115,"52":-0.039580345958951886,"53":-0.10215160062783711,"54":-0.011164502065557358,"55":0.018851879015129178,"56":0.1313883189534877,"57":0.035668932311580935,"58":0.01121611375106648,"59":-0.001130328666871552,"60":0.057968294262157605,"61":0.03156084117523441,"62":0.01592123158276667,"63":-0.15447298172200988,"64":0.18576146884774675,"65":0.040443549375627684,"66":0.04967702542597954,"67":-0.17765103904642043,"68":0.06765001005655043,"69":-0.09587383975940053,"70":0.008202782125811412,"71":-0.044093677122292244,"72":0.0036389931107444944,"73":0.00943204499528315,"74":0.01809204115063827,"75":0.02491173025301886,"76":0.04570339322303597,"77":-0.015584518509691095,"78":-0.011286694189225089,"79":0.0012921946849957745,"80":-0.08194313631235406,"81":-0.007205582716362073,"82":0.017393441718183036,"83":-0.06042821333904023,"84":-0.015267010285047952,"85":0.015937192776291405,"86":-0.04768634063480115,"87":0.06497093281580738,"88":-0.10392966070579227,"89":0.01825117393926697,"90":-0.030809492915735582,"91":0.025999839868044043,"92":-0.030806139608140087,"93":-0.007101905343234189,"94":0.04561821697806217,"95":-0.013787744227076291,"96":-0.008694960203805245,"97":0.07119360850319444,"98":-0.051432059805064226,"99":-0.08406599472386252,"100":-0.03365722656996551,"101":0.04198423221207058,"102":-0.03117242563088546,"103":-0.02818571099937561,"104":0.017630572028432927,"105":-0.05375125418527496,"106":-0.014537338116379212,"107":0.0037367577519234647,"108":-0.04893865954354056,"109":-0.014992723398745548,"110":-0.07186869934271711,"111":0.062019216002961786,"112":-0.03162028211825657,"113":0.055956599067577585,"114":-0.05753867542048881,"115":0.03115467877628444,"116":-0.07638485044588601,"117":0.08641385239779842,"118":-0.04436625476895725,"119":0.03461472407987778,"120":-0.018525908691423683,"121":0.022920866993136828,"122":-0.05832956622027685,"123":-0.023673139874905238,"124":-0.0647072129378026,"125":0.12549718276208452,"126":-0.028409339929044507,"127":-0.02865960628370498,"128":-0.22886863184074266,"129":0.21321205906747667,"130":0.21814696192869532,"131":-0.08240908827756037,"132":0.22259146136970384,"133":0.1758819398935028,"134":0.08964689612162954,"135":-0.1123220794755913,"136":0.054471912451648286,"137":-0.09526950949833207,"138":0.09279232529871506,"139":-0.049528684777672916,"140":0.029253217579399915,"141":0.07304766831437683,"142":0.02700889292816274,"143":-0.03777267547684993,"144":0.020194001771763406,"145":0.07592394158156189,"146":0.07991044506710582,"147":0.007288031084943603,"148":0.11543555511082836,"149":0.09301361655738373,"150":-0.04914157332116666,"151":-0.018104653161339208,"152":-0.0380209306988247,"153":0.06600568136071973,"154":-0.053636004942744564,"155":0.03461870178635606,"156":0.019480315667527837,"157":-0.0773005228757755,"158":0.0626633814712814,"159":-0.03081178828385477,"160":-0.0505363146836926,"161":-0.03545250084036235,"162":0.029039002571889485,"163":0.01807133291624596,"164":-0.015450269354700043,"165":0.058753672030518234,"166":0.04462576064831212,"167":0.07720739290596107,"168":-0.08482442274642947,"169":0.008634927619204154,"170":0.17204288926394423,"171":-0.03408834417943526,"172":-0.01340606488255569,"173":-0.004774673343684368,"174":0.03939779382799049,"175":-0.004978894217529178,"176":-0.07208146507444803,"177":0.048499645889760364,"178":0.013541328690798292,"179":-0.008365679131570691,"180":-0.011671174055901267,"181":0.11101680669713684,"182":-0.03756079057341976,"183":-0.07905043330931795,"184":0.028068101212467993,"185":0.043237180273424276,"186":0.1012590505893051,"187":0.04586734161068828,"188":0.011905121000069588,"189":0.019211450141620817,"190":-0.09496189747061597,"191":0.059039264687704464}},{"sx":1,"sy":1,"depth":192,"w":{"0":0.06220536355620954,"1":0.04181654177145104,"2":-0.10907451690320286,"3":0.12684944796065,"4":-0.06446123538415788,"5":0.010582383331146663,"6":0.08828627863207007,"7":0.2109750080981542,"8":0.0801648920509552,"9":0.0675857209989706,"10":0.01203258310646954,"11":0.0017521185106607754,"12":0.03465485754704497,"13":0.0002681882587961414,"14":-0.05496609632439964,"15":0.06441587668964165,"16":-0.0732615732056834,"17":-0.060868274917652045,"18":0.014438852431809469,"19":-0.04226193808604098,"20":-0.02366413499784426,"21":-0.07536793581226119,"22":-0.020009548299976747,"23":-0.007972382281246556,"24":-0.03212483256327759,"25":0.0030664695404287166,"26":-0.028118677034975906,"27":-0.061898025581327516,"28":0.09118165124487432,"29":-0.04633214168342424,"30":-0.009104471347711763,"31":0.0034641203749204053,"32":0.0029085010858211718,"33":-0.02618817219539437,"34":0.13684667989847227,"35":0.07766845877820969,"36":0.013333451174547817,"37":-0.04841738019700151,"38":-0.012304129827628291,"39":-0.03303661326349538,"40":-0.015228844609271031,"41":-0.012898301421605042,"42":-0.03716666284246752,"43":-0.03383044864439794,"44":-0.00204047494771601,"45":-0.054339763951964874,"46":-0.026811848125674213,"47":0.031376837967931684,"48":-0.05145409525262485,"49":0.03239960543244067,"50":-0.031013026340244523,"51":0.009201758352510898,"52":0.01635539962257201,"53":0.049252384201523565,"54":-0.033145452142765826,"55":0.0016859678193090436,"56":-0.016396579796921048,"57":-0.013403965426896817,"58":-0.006054380904256652,"59":-0.009316159402220359,"60":-0.03437532499963742,"61":0.02993154521238537,"62":-0.017227738805578298,"63":-0.02131722328011222,"64":0.16841796957344365,"65":-0.005379379088509216,"66":0.028066849936615578,"67":0.013881551690698001,"68":0.03625543400380211,"69":-0.04861240767883429,"70":-0.028028551584049093,"71":0.0308740258694373,"72":0.019019262594670638,"73":0.037029019953596476,"74":0.14237695717857013,"75":0.092513953825738,"76":0.04569264283736336,"77":-0.023783749240762507,"78":0.10906819888200235,"79":0.05469361185497532,"80":-0.0661362733524247,"81":0.049495990033010646,"82":-0.053117582021359126,"83":0.007254722959159632,"84":0.021299047343100525,"85":-0.022161136422593142,"86":-0.06189722000479965,"87":-0.054346598179695636,"88":-0.03452456007371499,"89":0.0017958996561719322,"90":-0.09010107302421301,"91":0.011735256068570846,"92":-0.025835550477294904,"93":-0.01623138826215691,"94":0.039210671488317195,"95":-0.09139936106187511,"96":-0.03963593548033955,"97":-0.060794961380316564,"98":-0.06745198590807455,"99":0.0017237829222126323,"100":0.026682640384215313,"101":0.0444710165159887,"102":-0.0985177338860553,"103":-0.05694142249565106,"104":0.009732549655226911,"105":-0.021083055953561657,"106":0.026018094034637125,"107":-0.013505278461406011,"108":0.04317186999903412,"109":-0.005701064034509041,"110":-0.03674588370954503,"111":0.010705203121592916,"112":0.01365133309205368,"113":-0.04656669950252041,"114":0.05846218340937318,"115":0.02648102504226185,"116":-0.013170161303204645,"117":0.027783956945714883,"118":-0.044344992040113135,"119":0.09030275368444057,"120":0.05631944453738235,"121":0.0028868261246741225,"122":0.06002754680132344,"123":-0.025862803433342046,"124":0.04494224346336895,"125":0.04034818798989251,"126":0.10972385638243633,"127":-0.04114630121157337,"128":-0.05082107740383851,"129":0.03868852660290196,"130":0.009130198803258029,"131":-0.06712415814490416,"132":-0.04320600287161273,"133":0.06944089736567585,"134":0.1494586590824437,"135":-0.033640609617057594,"136":0.020221842681591988,"137":-0.06391744641475369,"138":0.16069497550343315,"139":0.08289448297546544,"140":0.017259962856329844,"141":0.0113964042620465,"142":0.03950699701932839,"143":-0.09616007595153293,"144":0.02075686625030324,"145":0.038518506742361916,"146":0.011260696273676197,"147":-0.08244630850198355,"148":-0.0153966791875868,"149":-0.10351427245130508,"150":-0.13596770867285132,"151":0.02670559725582738,"152":0.08217847857291859,"153":0.09828927845716567,"154":-0.07807765946209082,"155":-0.011762795734504226,"156":-0.01402827459927872,"157":-0.001909264607536851,"158":-0.0017673962821322141,"159":0.040572415446544725,"160":0.02834497894087317,"161":0.020395175756835728,"162":0.006672447968799001,"163":0.012105099508238818,"164":-0.0018436049230760518,"165":0.11551082922756312,"166":-0.09669230356940013,"167":-0.10576070843412672,"168":0.04223235177704444,"169":-0.030117444793334426,"170":0.022054113659526677,"171":-0.027285354677599426,"172":0.043527265997336646,"173":0.06475308675957402,"174":-0.06949426145516682,"175":0.09329673562035339,"176":0.03617786467076091,"177":0.1497641357931135,"178":0.08777038336453973,"179":-0.07900827971722833,"180":0.04835624632373522,"181":-0.0164591653258699,"182":-0.05405834665226508,"183":-0.07177743327978645,"184":-0.003644925779249667,"185":-0.023455812756328825,"186":0.004483634860730996,"187":0.04865183589511603,"188":0.029149137179364265,"189":-0.041000954772864,"190":-0.010724407293793132,"191":0.030701830585781333}},{"sx":1,"sy":1,"depth":192,"w":{"0":0.11930244704052292,"1":0.1426928702062892,"2":0.007341811638939592,"3":0.06591822193883506,"4":-0.08850936853931829,"5":-0.00384863584072058,"6":0.0016758876245708564,"7":0.007987411747880223,"8":0.006876156980008475,"9":-0.04089320009663937,"10":0.013367194740299107,"11":0.1004665930644473,"12":-0.05732210233933682,"13":0.09207778600706193,"14":0.033228071724993036,"15":-0.11580816064854972,"16":-0.04866327632647235,"17":-0.07208329330778449,"18":0.002940523918129194,"19":-0.04648147432352374,"20":0.018315977871377228,"21":0.008546547157564133,"22":0.10981702108599273,"23":0.043326073423643245,"24":-0.02961452683259329,"25":-0.049737223784067405,"26":-0.0012409503455246852,"27":-0.09232712852965343,"28":0.03128936198452388,"29":0.019980440628302273,"30":-0.031070783731262933,"31":0.0447417934070678,"32":0.005926996661118043,"33":-0.0024513104256796577,"34":-0.04256618871761559,"35":0.11349800373767169,"36":-0.06410870758227145,"37":-0.10942030827259377,"38":0.02600889824092906,"39":0.11197628680068947,"40":-0.018091260698689163,"41":0.024242373711357082,"42":0.0011767689924490508,"43":0.022877427399145316,"44":0.047854877928993136,"45":0.12002570223730832,"46":-0.038513330853923354,"47":0.006448218393341371,"48":0.08932897160731473,"49":0.06566702731361149,"50":-0.0804317518633535,"51":-0.03609257021371339,"52":0.03536053693988857,"53":0.03380353804725358,"54":0.046560923823118786,"55":-0.03744001164091474,"56":-0.0788444039747111,"57":0.005038194155508487,"58":0.038370232504225575,"59":-0.0025711923760107177,"60":-0.14561272353384128,"61":0.05926648183687171,"62":-0.05187919549658204,"63":0.09310825337010867,"64":-0.14594524523432917,"65":0.009538449780341466,"66":-0.0908676038871743,"67":0.028433845518992442,"68":0.018640809618847783,"69":0.024720707361422477,"70":-0.013589745728541602,"71":0.07595498897901769,"72":-0.015227295374064604,"73":0.05870192854799588,"74":0.002852978036646573,"75":0.031026750250321613,"76":-0.08890470576212023,"77":0.0632028873902523,"78":0.00026890452340866145,"79":-0.07875950829228366,"80":0.0706383148607277,"81":-0.025370749310063896,"82":0.03838417581511519,"83":-0.01568805752690104,"84":-0.045836072578869784,"85":-0.03162321451563388,"86":0.016412603650093366,"87":-0.010793374882902834,"88":-0.11426389333883105,"89":-0.01968937914055113,"90":-0.05257757930099812,"91":-0.059068984587543984,"92":0.0595894718380663,"93":-0.08727567600151367,"94":-0.12516760767050147,"95":0.04661810628821596,"96":-0.09340657757541194,"97":-0.018372333437900484,"98":0.13553434896074448,"99":-0.02337008386043398,"100":0.0004460536802532322,"101":-0.028433757000966686,"102":0.002576818959608126,"103":0.09136534574100857,"104":0.08848721680390513,"105":0.00869680337325511,"106":0.015943994845472157,"107":0.0305462835976383,"108":0.07941336502093675,"109":0.07485418925614455,"110":0.04131863230955439,"111":-0.06681768388905095,"112":0.0547520393352637,"113":-0.026383440530991537,"114":-0.023448290751129454,"115":0.00619077074617986,"116":0.038412937244040594,"117":0.07431423695837541,"118":-0.03582993775443243,"119":0.035955970859387246,"120":0.023175921770486024,"121":-0.08951532759086846,"122":0.07466090362593544,"123":-0.044122833508032956,"124":0.08333617381417475,"125":-0.018776557903275135,"126":0.05941601670202634,"127":-0.03325942237572319,"128":0.27108742468045444,"129":-0.07604746216868191,"130":-0.177713808484067,"131":0.04485768496055485,"132":-0.06339471478147812,"133":0.0478762720040561,"134":-0.008108330850583137,"135":0.018799561818419543,"136":0.009168113214413383,"137":-0.026799272616014436,"138":0.013135982251459993,"139":0.035308631358776904,"140":0.014127460274768314,"141":0.04245683796382649,"142":0.09808516594790521,"143":-0.1462977144730876,"144":0.04154485099692473,"145":-0.027126601881309532,"146":0.023203461960359602,"147":0.03388066436031028,"148":0.058331381591142505,"149":0.05315705488173628,"150":0.06265168176026434,"151":0.0060714173955550175,"152":0.02163983541228409,"153":0.022955592865161623,"154":0.07324256134232873,"155":-0.020625882538507334,"156":-0.08709575260950783,"157":-0.026838667056019762,"158":-0.08602111945025595,"159":0.033476095637369904,"160":-0.044244264389898424,"161":-0.03412768282117763,"162":-0.03155272707135185,"163":0.05845033154047711,"164":0.0924473150260961,"165":0.0477447941157506,"166":0.019035618926630526,"167":-0.03775172807327379,"168":0.08273341762194796,"169":0.07049466988448111,"170":0.01481341097608475,"171":-0.02993469471228394,"172":-0.14634902322930557,"173":0.043773226482740256,"174":0.11805954723078078,"175":-0.09239639829122141,"176":-0.013822378437353261,"177":0.02218997983196681,"178":-0.07950389568106044,"179":0.003008067891471206,"180":0.0257299861534845,"181":-0.026507815115677468,"182":0.02394921836821004,"183":0.007214802415452869,"184":-0.011503752185391349,"185":-0.08904525476491253,"186":0.09356107189146598,"187":-0.037591687321733,"188":-0.03888799922898616,"189":0.03796924318288108,"190":-0.085198696994318,"191":0.0401200943013089}},{"sx":1,"sy":1,"depth":192,"w":{"0":-0.0033646007906771892,"1":-0.23478110238698144,"2":-0.16336982644397227,"3":-0.31227301969480764,"4":-0.08262114230406348,"5":-0.09598770332704391,"6":-0.19686858406615687,"7":-0.08762158135082344,"8":-0.020205269366665307,"9":-0.030384220570880614,"10":-0.03143886452498307,"11":-0.04697900790577543,"12":-0.04254735451352401,"13":0.10665235257748275,"14":-0.008220451052248853,"15":-0.03169699448603846,"16":-0.04778210871233506,"17":-0.026542288867635908,"18":-0.03865781445470489,"19":0.019407195486751065,"20":-0.006990250777281358,"21":-0.10781766739271538,"22":0.07570054605964657,"23":-0.03233528451273788,"24":0.03217257458057299,"25":-0.045249828914034854,"26":0.03625077590369422,"27":-0.003934076226294022,"28":-0.004755727094728439,"29":0.07162232151385528,"30":0.0506507243916492,"31":-0.04126112264153913,"32":-0.04482080845496669,"33":0.09568301575683844,"34":-0.11408550501922336,"35":0.082364232538599,"36":0.0360413603221271,"37":-0.03954129538456935,"38":0.0044019934686697765,"39":0.011428569720321068,"40":0.01146597009818304,"41":0.0478386144827406,"42":0.031042719881719447,"43":-0.05412543046825187,"44":-0.017100138212536014,"45":-0.01371978092800883,"46":-0.04833548413784771,"47":0.018264761728604164,"48":-0.004105037133088873,"49":0.09110647264865596,"50":-0.027135322149005214,"51":0.07156714757701552,"52":0.0025958214793697526,"53":0.030332713503011078,"54":0.007346067226444737,"55":-0.09247890693545927,"56":0.027106292676414474,"57":-0.05732494182848612,"58":0.044635022255800676,"59":-0.06240713702173561,"60":-0.09760985323661976,"61":0.0016188352214393726,"62":0.011511495228549341,"63":-0.018910780535677785,"64":-0.10706788256206926,"65":-0.06972602083575655,"66":0.013691654238149935,"67":0.07664581610221173,"68":-0.004121316587723572,"69":-0.05015641014952584,"70":-0.011986545797652895,"71":-0.08668214598680275,"72":-0.023789049196688956,"73":0.0445255527355001,"74":0.04723438483000394,"75":0.10959250510302299,"76":-0.029269212633846534,"77":0.032680058825728574,"78":0.07610848003850804,"79":0.05324172758443125,"80":-0.05194087836834848,"81":-0.054718952417207874,"82":-0.029425372281642832,"83":-0.07345011726957257,"84":0.013075854286778738,"85":0.02801636488879725,"86":0.02749267451046459,"87":0.07682789897441082,"88":0.055655012298685184,"89":0.10976571191622203,"90":0.0715421706937889,"91":-0.013701735938543685,"92":-0.02188517520486752,"93":0.0015058866403060518,"94":0.022541550768650685,"95":0.007892720900720754,"96":-0.011894673005400416,"97":-0.03707914663852298,"98":-0.10384247272312869,"99":0.013712990562627026,"100":0.03202073176643621,"101":0.08024247061265177,"102":0.014334873531166558,"103":-0.017628501501795218,"104":-0.02931600945912709,"105":0.018685103164130964,"106":0.03739752519806804,"107":-0.02416634610460887,"108":-0.01641492183677618,"109":-0.03560171168812514,"110":0.01835221987944279,"111":0.06002446480091227,"112":-0.0698175475912814,"113":0.034989777987722445,"114":-0.005920839473548255,"115":-0.07898759166365045,"116":0.054298917891778646,"117":-0.04898422007519942,"118":-0.001185826367502673,"119":-0.005980217821675074,"120":-0.03282175686105173,"121":-0.07228260173689224,"122":0.027118957634533234,"123":0.008474381950993233,"124":0.04818252734756674,"125":-0.04040638452489762,"126":0.011844733240411746,"127":0.07391773518035698,"128":0.029402071449028136,"129":-0.09779229729452649,"130":0.0616410243688406,"131":0.13889031969466828,"132":0.11998255561345517,"133":0.04546579764571822,"134":0.04194757103728092,"135":0.126736768373187,"136":0.13979798102286964,"137":0.11758769413440771,"138":-0.04217108225311994,"139":-0.028201929534655452,"140":-0.05816633411479617,"141":-0.1240439330281494,"142":0.038081232862993336,"143":0.0744552239448537,"144":-0.0815602009149846,"145":0.0709749191069305,"146":-0.004388434337322167,"147":-0.08024002460720617,"148":0.07759228933309623,"149":0.045675020177182876,"150":0.028324579308511566,"151":-0.07172298702970782,"152":0.05058613596892327,"153":0.037541661374490366,"154":-0.015990173157778988,"155":-0.07686662541994918,"156":-0.009220125039850306,"157":-0.02838269867970564,"158":0.01611656778744102,"159":0.012896063450940026,"160":0.09611194707045799,"161":0.02144006898972263,"162":0.019256615385943483,"163":-0.03629371535491518,"164":0.007169650165012102,"165":-0.007275120231728183,"166":0.017380939574488385,"167":-0.005900108352241202,"168":0.004960459134777627,"169":0.03164367862601436,"170":-0.0425867625067514,"171":-0.10260692039373426,"172":-0.052952938428194284,"173":-0.06399622952274128,"174":-0.12463787116050784,"175":0.04305982911315037,"176":0.024315692971289837,"177":-0.013255985128650368,"178":-0.007111290147273463,"179":0.014991100575452282,"180":0.06289742820202049,"181":0.006744723608358316,"182":0.03313388741840141,"183":-0.03633629667933635,"184":-0.1031321373807705,"185":0.0015300670433386957,"186":0.047822760821042684,"187":0.019571881126010784,"188":0.05112699443924339,"189":-0.10618891040911947,"190":0.12836472653143846,"191":0.027155609428287958}},{"sx":1,"sy":1,"depth":192,"w":{"0":-0.018479869751068852,"1":-0.13169358772038245,"2":0.04828556117340747,"3":0.12361891334865231,"4":0.044893443134235086,"5":0.05938707484502341,"6":0.0930028326122773,"7":0.010583485971280204,"8":0.033944901209733744,"9":0.04759180478739477,"10":0.12283611828432993,"11":0.20493540119159603,"12":0.10092772062400682,"13":0.044929980702849544,"14":0.016528790033675526,"15":-0.005803100520264769,"16":0.043112909279663325,"17":-0.006471794372122334,"18":0.07135305254364638,"19":-0.005856357399432485,"20":-0.04579090030692384,"21":-0.04256986433384806,"22":0.03277238809245824,"23":0.03745834462411144,"24":0.08963346566080328,"25":0.08744329313874483,"26":0.08001784611925578,"27":0.0614691186144548,"28":0.04120549324825975,"29":-0.06508128134819156,"30":0.08194660485810273,"31":-0.043260118270119934,"32":0.034337307358360505,"33":-0.0038463121564208235,"34":-0.030581288746976836,"35":0.10176366423564329,"36":0.044319491565367734,"37":-0.01164137352679054,"38":-0.029526966013855918,"39":0.04616766155471081,"40":-0.11022773795547909,"41":-0.02308217262522119,"42":0.020147354286553204,"43":-0.027927326160856625,"44":0.044155715034519545,"45":-0.06227833600546461,"46":0.024829706661119375,"47":-0.00017567585700202187,"48":-0.09749375355428484,"49":-0.0534418357254104,"50":0.03132579527104122,"51":-0.042549468353897266,"52":-0.04144816857933034,"53":-0.0069049735295282555,"54":0.023755814423709252,"55":0.02717075084138391,"56":-0.010617012938833626,"57":0.057935951973382784,"58":-0.047585275255720295,"59":-0.011030078859137855,"60":-0.01845561460763085,"61":0.09170668308134561,"62":0.026931994662670534,"63":-0.050779455274052775,"64":0.10847795495787145,"65":0.014650176934678164,"66":-0.12056019530320583,"67":-0.08846432645871594,"68":0.025330613211914304,"69":-0.11828892021377078,"70":0.009276448742963787,"71":-0.0247962701306492,"72":-0.1257651819310129,"73":0.03478494284038266,"74":-0.06258660757215538,"75":0.08505312834714424,"76":-0.012150856874724027,"77":-0.046034154190142014,"78":0.13061702769234576,"79":0.06502310660726059,"80":-0.03807479512086553,"81":0.029611048272476848,"82":-0.03555913751931892,"83":0.0535387507410179,"84":0.01018768749817836,"85":-0.11415746001236608,"86":0.10390560671818168,"87":-0.014602744544372324,"88":-0.020301982731721468,"89":-0.023761794788502256,"90":0.07017365886059786,"91":0.011709669686279664,"92":-0.005807222617864817,"93":0.11767538125635317,"94":-0.05540151254030534,"95":0.0034082144416815157,"96":0.03632921431279318,"97":0.007890515557994379,"98":0.05091883759352001,"99":-0.05363612808777072,"100":0.00225121233774786,"101":-0.05753998067007182,"102":-0.01474788678991251,"103":0.003249301239822882,"104":0.02025235337019973,"105":-0.01987483502033786,"106":0.11696694629069254,"107":-0.06611654008071798,"108":-0.010648778303903622,"109":0.03324153552091726,"110":0.11659362341973509,"111":-0.005560526536990906,"112":-0.04640674917480023,"113":-0.0013785874550589032,"114":-0.022440492861510484,"115":-0.027260416342039552,"116":0.0696930987448983,"117":-0.07345464000403217,"118":-0.1411455545995086,"119":-0.014943669650863727,"120":-0.037949751381029274,"121":0.05660095530828588,"122":-0.016899781666879186,"123":-0.03844458014865522,"124":-0.08045792422831803,"125":0.0797753173756888,"126":-0.013675762111281744,"127":-0.06583909204264819,"128":-0.042017793893466535,"129":0.06786636592070373,"130":0.11595534736579194,"131":-0.29670136071468023,"132":-0.06860587916380703,"133":-0.14998926606232924,"134":-0.06255216064100243,"135":-0.035349501128818406,"136":-0.06179479954106746,"137":-0.02295749787233019,"138":0.012904260234577223,"139":0.07013851005001928,"140":0.03183420500981394,"141":0.025961774412401873,"142":0.038084105818612726,"143":-0.0031073899593048585,"144":-0.03220361093599701,"145":0.04742885740133056,"146":-0.007648218973463279,"147":0.0009872800696452573,"148":0.03685402056658312,"149":0.09606124030108477,"150":-0.043067358940485176,"151":-0.017739922059679187,"152":0.1410268661626399,"153":-0.03527136182528635,"154":0.023480187469896323,"155":0.0349455543771691,"156":-0.03514249872221463,"157":0.041832968596669164,"158":0.035049822660243306,"159":0.0339112376874856,"160":-0.03496469212745937,"161":0.04359453075310728,"162":-0.020327438433730315,"163":-0.015772850880447623,"164":0.04549608544667517,"165":-0.07255417841419452,"166":0.014756905356625149,"167":0.011627424164014435,"168":-0.021641545156379033,"169":-0.030458124099868554,"170":0.014926626177145763,"171":0.06504642743621655,"172":-0.035397647305968775,"173":-0.04208792573849701,"174":0.06287094615626686,"175":0.05299336423332935,"176":-0.008577874083372218,"177":-0.009232855998101364,"178":0.07258186076485691,"179":-0.09330791934682871,"180":0.016708040204890483,"181":0.024733242286050606,"182":-0.0027893698316452872,"183":-0.016375984746532176,"184":0.014638938100391937,"185":-0.031632955695442944,"186":0.003936730663754949,"187":-0.05951866789262289,"188":0.0019295941344926058,"189":0.12038351185806533,"190":0.008918638339154714,"191":-0.02880957379914644}},{"sx":1,"sy":1,"depth":192,"w":{"0":0.04026483321140492,"1":-0.021707108928022276,"2":0.001243456741708913,"3":-0.0923535650705999,"4":0.01856393894047466,"5":-0.018397831602740163,"6":-0.08054450079079357,"7":-0.04731703262424656,"8":-0.07713365707228202,"9":0.12959398224172236,"10":0.07010383738938315,"11":0.04966331959506007,"12":0.1624353951292631,"13":-0.07349974936008273,"14":0.09070832673740965,"15":0.028932423581260806,"16":-0.00518398077295579,"17":0.03576740934216259,"18":0.09447224568411836,"19":0.04750053554184745,"20":0.05872568955380492,"21":0.014890540098100655,"22":0.05180779003503145,"23":-0.005214729892313867,"24":-0.04923662791023581,"25":0.09622280341277632,"26":0.027417972584496193,"27":-0.08144707080806846,"28":0.044080470585100374,"29":0.0918741601838806,"30":-0.02216800214178117,"31":-0.04522934739701507,"32":-0.029238723291996237,"33":0.12254234100949013,"34":0.09200980056758477,"35":0.015275653913940684,"36":-0.04595293157174873,"37":0.004543254414084775,"38":-0.07784775168061207,"39":0.019641993410164527,"40":-0.09777717566214696,"41":0.0025024332359877975,"42":0.007484519697730657,"43":0.03838367075810317,"44":0.012030426685659514,"45":-0.05208087438188132,"46":0.005746215628762687,"47":-0.05017173188351852,"48":0.0029190350423030104,"49":0.07408248276811044,"50":-0.016550962664277587,"51":0.007765968725279024,"52":-0.01687785488351239,"53":-0.008696373311398454,"54":-0.03608027858783175,"55":-0.10387330192737305,"56":0.10308763110103102,"57":-0.07098938263697635,"58":0.037682493759315275,"59":-0.060793450444171455,"60":0.00730718044011984,"61":0.08536064830875675,"62":0.06023049627793069,"63":0.014164309536774075,"64":0.1578521428951103,"65":0.031899079673200374,"66":-0.026315412027474373,"67":-0.00328578386354582,"68":0.021643439446908986,"69":0.007170485499381974,"70":-0.13525759055293474,"71":-0.12337987223973315,"72":0.0459272361348947,"73":0.0525279804641157,"74":0.030873039994546367,"75":-0.03289276994912264,"76":-0.016751876590470997,"77":0.016007048771919243,"78":0.0032667515693064397,"79":-0.055300886412241276,"80":-0.06925968018179732,"81":-0.0013667406560882041,"82":-0.07960501716299835,"83":-0.0923515012154349,"84":-0.044728253054540576,"85":-0.01901766453378557,"86":0.03947196700101653,"87":0.019507813726762944,"88":0.08463305188873001,"89":0.0853251445136569,"90":-0.0563974800039558,"91":0.058275618155405974,"92":0.02729952309376102,"93":0.0223932943554747,"94":-0.02284810141828909,"95":0.022103109272671406,"96":0.02761317680415263,"97":-0.04873862692724351,"98":-0.07285320208006503,"99":-0.12130811714096004,"100":0.001543329456381721,"101":0.06338017917496623,"102":0.04652612524753231,"103":-0.006041135170058552,"104":0.03015935120371088,"105":-0.03669455155064341,"106":-0.07711763457288426,"107":0.05104579592680238,"108":0.07898835819868248,"109":-0.0693709029750294,"110":0.06809229907504959,"111":0.04313213678837095,"112":-0.10697996784399175,"113":0.07613680397359747,"114":0.014020036273939737,"115":-0.05497675650514881,"116":-0.013409547750111151,"117":0.05676697220522947,"118":0.005268933262917927,"119":-0.0343278852278079,"120":0.07852225621973383,"121":0.11149127749015006,"122":-0.05621708361197686,"123":0.04368839207840375,"124":0.0012436662680042436,"125":-0.024875726503510803,"126":0.011276787206866255,"127":-0.0016461198916947737,"128":-0.17777724544113685,"129":0.15899931764299055,"130":0.04825729002183546,"131":0.0005948124460659746,"132":-0.009249109088446844,"133":0.03862309143161377,"134":0.038791074069449,"135":0.04244903811816507,"136":-0.011865913086206836,"137":-0.016157047434983227,"138":0.14920200814992862,"139":0.03901823975487206,"140":0.09891993673312108,"141":0.08340144773530551,"142":-0.029671818501230657,"143":0.14425501348138303,"144":-0.028741635818704585,"145":0.031807776179326244,"146":-0.05947730243502198,"147":0.06824403730306697,"148":0.064762347212614,"149":0.040159180718575466,"150":-0.03987268233059467,"151":0.09391194638895668,"152":-0.013499857817150095,"153":0.011934918542085685,"154":-0.01608813517972004,"155":0.03643867823252693,"156":-0.033091093859404924,"157":0.08136519818575155,"158":0.022444391093511006,"159":-0.0407339617793362,"160":0.034314629158642466,"161":-0.09732998611045268,"162":0.021721519606059118,"163":0.018263335737250835,"164":0.05964708522852368,"165":-0.01147518188827048,"166":-0.034537422769861756,"167":-0.09981172795154548,"168":-0.050677676881892904,"169":0.046864629331227425,"170":-0.05524556056273395,"171":0.07360426542698334,"172":-0.001155908090681828,"173":-0.059181155272782476,"174":0.09916788106146972,"175":0.006148594541835727,"176":0.004979036736390105,"177":-0.00455928120122182,"178":-0.0013059817268995541,"179":0.07128438516213197,"180":0.039763587826165875,"181":-0.052818386855821645,"182":-0.049252109882087364,"183":-0.03848927185034278,"184":-0.11164627878755658,"185":-0.07788047991093493,"186":0.06143669178901847,"187":-0.05715703927049375,"188":-0.19409595809706026,"189":-0.010910576997154673,"190":-0.026108557259418345,"191":0.06943561239240462}},{"sx":1,"sy":1,"depth":192,"w":{"0":-0.11960958191202078,"1":-0.321050376353675,"2":0.02947914050170554,"3":-0.26419561424517435,"4":-0.02817238920488493,"5":0.04288866889647437,"6":-0.0544958348558717,"7":-0.14823592608752956,"8":-0.05753394195473552,"9":0.013849899086760622,"10":0.023808635221793367,"11":-0.056981572620059054,"12":-0.025145649471940815,"13":-0.012931039491081346,"14":0.034347807572486254,"15":0.013133650819264585,"16":0.06387843850287624,"17":-0.1167278566880546,"18":-0.035312034546592534,"19":-0.0051791246354021955,"20":-0.0064966005288540464,"21":-0.0027115866129709056,"22":-0.07569889430725588,"23":-0.0651683816312233,"24":-0.07214407460678768,"25":0.02414314365254312,"26":-0.05851694758998378,"27":-0.026033850533983105,"28":0.0025648420532434495,"29":-0.09954579835429583,"30":0.07214160499301556,"31":-0.0001038032382823453,"32":-0.13828721540051772,"33":-0.023092655111349496,"34":-0.06083907650795454,"35":0.08235049072294408,"36":0.02051160283178394,"37":-0.08398823964041056,"38":-0.01440973473177341,"39":-0.05338299985000896,"40":0.009837774166988911,"41":-0.027530529175039706,"42":-0.0011197140189113722,"43":-0.016336982692568898,"44":-0.07960773980047814,"45":0.09287855602272899,"46":-0.01846903647759535,"47":-0.048960915448890745,"48":0.011415461021338181,"49":0.02982198830125413,"50":-0.010725174294622691,"51":0.005421655110163314,"52":0.08081274513639844,"53":-0.021193763423170347,"54":0.04904292489236836,"55":0.05974510838641159,"56":0.0725744931729186,"57":0.018484593072005527,"58":0.09944586350147287,"59":0.07334445814645527,"60":0.07913853152636574,"61":-0.03477346864779342,"62":-0.05964858247025593,"63":-0.09934297889749198,"64":-0.3064615463720696,"65":-0.0798173171502931,"66":-0.09182596635184914,"67":-0.15697759005939582,"68":-0.10176034558242562,"69":-0.10067601225723906,"70":-0.013650774774518839,"71":-0.02376927740427917,"72":-0.08529904824344978,"73":-0.06548007564570775,"74":-0.03536461078307032,"75":-0.09293261191812485,"76":-0.039217746319267,"77":-0.023269473164101367,"78":-0.009858287234546041,"79":-0.0548291798829978,"80":-0.09064343249708305,"81":0.06203238642898597,"82":0.057400568368450325,"83":-0.013557066684011541,"84":0.0240892089392037,"85":-0.0147991859627363,"86":-0.03609427405200293,"87":0.02845809140639168,"88":-0.026481513853554323,"89":0.010258827318287329,"90":0.031111713774808904,"91":0.031153100785969216,"92":0.056485377480778996,"93":0.07717387407227305,"94":-0.03162174138609398,"95":0.1626068455682605,"96":-0.09324722458501715,"97":-0.040717705360642564,"98":-0.06042201503724126,"99":-0.0911632319321242,"100":-0.0720073938948761,"101":-0.032608769724202055,"102":-0.02174645128317585,"103":0.05835166130290519,"104":-0.0100715811774572,"105":-0.06835873350913733,"106":-0.056623212196577434,"107":-0.006034394175822518,"108":0.027375290659132738,"109":-0.04316918040568201,"110":0.0006242523183737308,"111":0.005541170379748394,"112":0.0536020055419332,"113":0.058442930320407,"114":-0.016197442550150203,"115":0.004831673981665942,"116":-0.006478885755154188,"117":0.005186632371222691,"118":-0.026702597664248272,"119":-0.08965109548079571,"120":-0.019107656655960408,"121":-0.0028540681544905007,"122":0.02973695915446648,"123":0.12746450379717159,"124":0.03530299379322844,"125":0.013345338003595117,"126":-0.07864685207022054,"127":-0.03175146167102409,"128":0.10665934780223778,"129":-0.20600253107943678,"130":0.10914137706473331,"131":0.12996011933623905,"132":-0.08378575002658346,"133":0.017374780229587675,"134":-0.09500170369774276,"135":-0.09345570596534196,"136":-0.1395266036264939,"137":-0.0614745899480939,"138":-0.07087752080677474,"139":-0.09611698269857911,"140":0.052749695971685995,"141":-0.06419795679490377,"142":-0.08624151416694918,"143":-0.0038641446452921295,"144":-0.04007247782032404,"145":-0.05546032014861033,"146":-0.05519251940888876,"147":-0.0040651825454767684,"148":-0.0011954495637584324,"149":0.05584411498127298,"150":0.006579497288828612,"151":0.011514544519337686,"152":-0.010502967232302192,"153":-0.12207809079653248,"154":0.11299904733615787,"155":0.001685014397539987,"156":0.03420690226519351,"157":-0.06154673137402145,"158":-0.03868553970261569,"159":-0.02940765674644113,"160":-0.007571278032121825,"161":-0.059380999168983414,"162":0.018363299215048128,"163":-0.005195759663213575,"164":-0.06678119461617625,"165":0.07918855366244064,"166":0.01442403250442518,"167":-0.028429435545558695,"168":0.015098422333874352,"169":0.02963323739059076,"170":0.037376262959351654,"171":0.0015774687910472685,"172":-0.009404339345961575,"173":0.023557373628719357,"174":0.058618987815516,"175":-0.06985825366478458,"176":-0.006741281253890054,"177":-0.027487706935740062,"178":-0.06568616667465224,"179":-0.032697649542797684,"180":0.05102219109123821,"181":-0.003325271235138794,"182":-0.01090520911049228,"183":-0.05921565597234422,"184":-0.028487173477493206,"185":-0.07998242673484607,"186":0.046209848914952945,"187":-0.09094788718329679,"188":0.020012318327399265,"189":0.0792761460514699,"190":-0.0702888654721701,"191":0.08513718732348384}},{"sx":1,"sy":1,"depth":192,"w":{"0":-0.017196927147483904,"1":0.24179314379881536,"2":0.18742583557874357,"3":0.05183444834146678,"4":0.13491117482255294,"5":0.03288597067841152,"6":0.1633400599678467,"7":0.029655882107303216,"8":0.03359940188057326,"9":0.13312384596675,"10":-0.026470544170394555,"11":0.04437641412213227,"12":-0.05341436912718216,"13":-0.009017277235653723,"14":0.02710594205568785,"15":-0.09559367166664583,"16":-0.06424892940281683,"17":0.0008757848278663795,"18":-0.003646389577572722,"19":0.011225402405604266,"20":0.007519839844381727,"21":0.01187503831708744,"22":-0.0716401542812756,"23":0.05669581871795762,"24":0.0005829655930210399,"25":-0.020622401352164386,"26":0.032579038216417874,"27":0.02106177399748375,"28":-0.030923458662974433,"29":-0.029207694156552215,"30":-0.027795894349048656,"31":-0.08289189750823656,"32":-0.02716453016770576,"33":-0.04402680164765202,"34":-0.02013357035532879,"35":0.015759373690211142,"36":-0.1611157462688774,"37":-0.0932685237668166,"38":-0.06306222272295307,"39":-0.033473595556254614,"40":0.010671324880240047,"41":-0.02328557998894704,"42":-0.008892451799906973,"43":0.023764082852950116,"44":-0.052114155263866896,"45":0.050985018035943006,"46":0.05054630760994065,"47":0.022659382192403713,"48":-0.10781487348402137,"49":-0.007558367631150567,"50":0.06497700027411969,"51":-0.14543698639920394,"52":0.027203353087365614,"53":0.0108855065978556,"54":0.07062890693597804,"55":-0.0374282377265622,"56":-0.01891452621023699,"57":-0.06683741037517281,"58":-0.004605615605403302,"59":-0.023706308895790194,"60":-0.09575234759662919,"61":-0.03180888537900174,"62":-0.005887359778353826,"63":-0.014209125955793957,"64":0.036631301621105034,"65":-0.1695510557645462,"66":0.10289845492520784,"67":-0.10365639590449631,"68":0.006725632217877518,"69":0.07557357892749579,"70":-0.04004797778213421,"71":0.014587367806869908,"72":-0.043436809916608005,"73":-0.015796541537441748,"74":-0.031181791262823423,"75":0.07793372495915031,"76":-0.10778580332869556,"77":0.026037554740594344,"78":0.03865216562910847,"79":0.029252343092273005,"80":-0.05624788071487416,"81":-0.02692201004816781,"82":0.025755243059913144,"83":-0.043840272615299956,"84":-0.03657027388638881,"85":-0.058778042912440105,"86":-0.041062488328684935,"87":0.026041044397534477,"88":-0.0804766089835887,"89":0.029627961783768694,"90":-0.041457682152936895,"91":0.028423593918485517,"92":0.001830757489931976,"93":0.03008309050750442,"94":-0.0343077091396173,"95":0.018310085298637934,"96":-0.007417519622727885,"97":-0.032602449448210134,"98":-0.04911030994852802,"99":-0.05214931389965432,"100":-0.041115483075095154,"101":0.04542984552618231,"102":-0.027265294568194424,"103":0.006654697197154605,"104":-0.0033292290658707437,"105":-0.09162062006851997,"106":-0.047764215840838425,"107":-0.012477453039082813,"108":0.08971342765390773,"109":0.0322370458604851,"110":0.100670362246895,"111":-0.056107766231747035,"112":0.04716517486933348,"113":0.010106716134838696,"114":-0.008927563438359869,"115":0.06767103041064185,"116":0.05925885494096599,"117":0.022958792314183803,"118":0.04117378435338612,"119":-0.09568463465217023,"120":0.06431339076693177,"121":0.023159667744432778,"122":-0.03432845106836129,"123":0.06600025264678287,"124":-0.015719861368151105,"125":-0.03976404815618539,"126":-0.0697701996612235,"127":0.00275196580432037,"128":-0.020906102832768114,"129":0.07386311770206451,"130":-0.04054619131461758,"131":-0.058676940464447845,"132":0.006876371641458785,"133":-0.13923713411025573,"134":-0.10218831232892041,"135":0.0016036218220903187,"136":-0.0021557491376148668,"137":-0.1291701071393008,"138":0.049052511283823354,"139":0.003247051095307359,"140":-0.06478238112277938,"141":0.04508126673476332,"142":0.12252722289491355,"143":0.07507646233979082,"144":-0.08700831937726317,"145":0.009100055016557506,"146":-0.0584976630296878,"147":-0.06392732683188808,"148":-0.061239193092029645,"149":0.014684771286740825,"150":0.04656685135059291,"151":-0.10408733352871147,"152":-0.06773939629858482,"153":0.03499914760060585,"154":-0.03142218693516866,"155":-0.07864976223922904,"156":-0.13960528035170544,"157":-0.016369410532304302,"158":-0.11304853201264463,"159":-0.09041188580000722,"160":-0.02040618133519948,"161":-0.013301985086192108,"162":-0.031201498548594664,"163":-0.02227810594027654,"164":-0.016042553222984157,"165":-0.06282961130003077,"166":-0.0701613275279947,"167":0.02345686563641542,"168":-0.08347813691719165,"169":0.007819992764369345,"170":-0.19437044464793404,"171":-0.145071603949965,"172":-0.04487475138186189,"173":0.026378534655203113,"174":0.057754787219992394,"175":0.07748106177184454,"176":-0.01570307328385432,"177":0.012104760065499839,"178":0.0004033703192804743,"179":-0.03254500117555793,"180":-0.04335427376277062,"181":-0.08108542850814028,"182":0.046828885031892274,"183":0.021855093611843436,"184":0.003685673337411198,"185":-0.03402079169379063,"186":-0.06341167128061331,"187":-0.08118522365405019,"188":0.027900972496956868,"189":0.038081615195679555,"190":-0.07855018280825402,"191":0.01754108358329591}},{"sx":1,"sy":1,"depth":192,"w":{"0":0.04608965496162348,"1":-0.10528695734598413,"2":-0.13794847666661894,"3":0.07158931786847414,"4":-0.018841599027599264,"5":0.022421989711484347,"6":-0.03684498194770123,"7":-0.08177228606472355,"8":0.000009217403003892985,"9":-0.03441870668183674,"10":-0.030767277960163587,"11":-0.009527417883641354,"12":0.019069279692198588,"13":0.024904335958114907,"14":-0.038277287802146856,"15":0.12035470413226435,"16":0.011376364340679289,"17":0.0872564604931712,"18":-0.03467835530706001,"19":0.05631197179829844,"20":0.08418020859103995,"21":0.0016650923197817353,"22":-0.03558733748496851,"23":-0.038471874941632095,"24":0.02807193136815563,"25":0.14022524787281695,"26":0.08064630605518096,"27":-0.0747782621414573,"28":0.10809281885517874,"29":-0.01956272547755056,"30":-0.042324195218999015,"31":0.005258995246880826,"32":0.07784292326059147,"33":-0.009400254028570096,"34":0.014201098907951877,"35":0.14067700634046415,"36":0.06160039956022876,"37":0.08202398647061827,"38":0.03264867159408567,"39":-0.07691215503863971,"40":-0.08436023623357264,"41":0.02573433058053318,"42":-0.011576943472118977,"43":0.03399704380464331,"44":0.027098146651577164,"45":0.05564197923821744,"46":0.015405942383412212,"47":0.0163042329986531,"48":-0.10630420439881272,"49":0.017978489952464673,"50":-0.0165599452489179,"51":-0.00023805455846363698,"52":0.13007095721802772,"53":-0.005677179107835623,"54":0.025554991309045295,"55":-0.015825725786661922,"56":-0.036877293787618795,"57":0.042744080456925626,"58":0.07106275508843168,"59":-0.054323833418677955,"60":0.005479002668909486,"61":0.06594953098237608,"62":0.0868918325346104,"63":0.006809680003266716,"64":0.008300351811957409,"65":0.2467003036103137,"66":-0.13441400151878904,"67":0.15577733933568677,"68":0.06537644696038586,"69":-0.028015038899971922,"70":-0.034781943321657315,"71":-0.0769453011216192,"72":-0.03503724419193222,"73":-0.037659412942918,"74":-0.018027017717810293,"75":-0.023714454491154977,"76":0.03014280300581887,"77":0.038519987466229796,"78":0.07314038193166679,"79":0.04281800259247233,"80":0.0613462514880605,"81":-0.0070374438064879676,"82":0.029795307429361997,"83":-0.02078491872002558,"84":0.13499877773273747,"85":0.052337477039413036,"86":0.09396394596157186,"87":0.05512075811683319,"88":0.030268229628388505,"89":-0.03549032437480172,"90":0.05162481689711396,"91":0.01059467252356917,"92":0.06361642750569191,"93":0.010450045258720059,"94":0.007646906743306469,"95":-0.011178577847605394,"96":0.007876822767833821,"97":-0.009005607914160298,"98":-0.008346785144122073,"99":0.05291554256146273,"100":-0.05072713966136941,"101":0.06476192745450869,"102":0.02075781619257641,"103":0.032917368032040165,"104":0.009875629593569765,"105":-0.059440975547727815,"106":0.033465974480516955,"107":0.038943200559001384,"108":0.10846635781040921,"109":-0.0666516408835963,"110":0.004411016236890623,"111":0.023783529658405047,"112":-0.08545493220120473,"113":0.010178678135004487,"114":0.029406561084869193,"115":0.027229458468124162,"116":0.017834731596809327,"117":0.04555196874009548,"118":0.03640817902119995,"119":0.013393049044893135,"120":-0.03969366828359798,"121":0.02619169318173497,"122":0.021452575126095233,"123":0.0008230379098168594,"124":-0.03323796984418411,"125":-0.020382177017065285,"126":-0.033054290166561064,"127":0.053863346530070154,"128":-0.06312423401711834,"129":0.05784886915827161,"130":-0.10698650467181567,"131":0.015194297086477125,"132":0.001048869182269356,"133":0.09994753332320862,"134":0.002389926234719679,"135":0.10020357058849252,"136":0.02366777902978242,"137":0.1541763855199992,"138":0.08873890250292683,"139":-0.025044149781854874,"140":0.12785687627463013,"141":0.008380059105869149,"142":0.02343266539569017,"143":0.06288661818234871,"144":0.09985251983859471,"145":-0.022800112781786317,"146":0.10190887121195072,"147":-0.04379167670819988,"148":0.023800951047475375,"149":0.08059304922333595,"150":0.06156108397062705,"151":0.1336079230971617,"152":-0.0013863239141526243,"153":0.08304889886692186,"154":0.07398294712543012,"155":0.04669344495745288,"156":-0.041796803549466854,"157":-0.0040363547852058776,"158":-0.025884909143075382,"159":0.04271787700729153,"160":0.053530907596597864,"161":0.020291975736924824,"162":-0.038621053401626027,"163":0.08557188818595117,"164":0.0673095166733327,"165":-0.020282458571993428,"166":-0.04736091823251294,"167":0.040135602413453625,"168":0.03559349018050121,"169":0.1088972453510717,"170":0.07664199848639683,"171":-0.07004024847970243,"172":-0.010293162191479742,"173":0.028245420774442507,"174":0.025739852603747282,"175":0.04740495988190467,"176":0.0578074378008745,"177":0.028098465210865495,"178":0.043678246566437415,"179":-0.011834292685742367,"180":-0.00872310953226077,"181":0.0008680494338604327,"182":-0.034402071006152404,"183":-0.03247193134295231,"184":-0.0027908677334823697,"185":0.04832500982064877,"186":0.05027439905966487,"187":0.02657552339535149,"188":0.11870491961040854,"189":-0.06805947541858491,"190":0.03849235108159328,"191":0.06256374954407742}},{"sx":1,"sy":1,"depth":192,"w":{"0":-0.10772745937678929,"1":0.12084721169004402,"2":-0.09966766571787346,"3":-0.3705566983856125,"4":-0.12552387357863243,"5":-0.15976557675545716,"6":-0.04897522723760546,"7":0.0038228190358867006,"8":-0.02666400962458958,"9":-0.0014198632783083268,"10":-0.15828670003063577,"11":0.08351281315844052,"12":-0.016471835689127867,"13":-0.08385340705427859,"14":-0.04075643993553338,"15":-0.06724625470379429,"16":-0.24594626797298139,"17":-0.0048279401605573246,"18":-0.08831417901597002,"19":-0.007870943981754606,"20":-0.04071087431961072,"21":-0.04709842262412895,"22":-0.13288606859941537,"23":-0.04028515548739882,"24":-0.026380585096400188,"25":-0.04016321762532825,"26":-0.02640985886576819,"27":-0.06513447807827659,"28":-0.06267384946808907,"29":-0.11942726704595046,"30":-0.009993529344586954,"31":-0.07659733565056966,"32":-0.07343191793103947,"33":-0.06559249807032953,"34":-0.024917866713519123,"35":-0.010798023413031944,"36":-0.09552166284739556,"37":-0.10723277897466225,"38":-0.023562940269600274,"39":-0.03981977573447349,"40":0.03695300403203798,"41":0.03953375913436863,"42":-0.0017708174936509641,"43":-0.016988647038787635,"44":-0.019888979309494074,"45":0.024142136385048422,"46":-0.07286851158089384,"47":-0.08927016210761785,"48":-0.04907685920187388,"49":0.07562159661482541,"50":-0.0825003707853548,"51":-0.08577465049044414,"52":-0.03972882452633349,"53":-0.033992395459933,"54":-0.08842479448846123,"55":0.0439585672437489,"56":0.03212337918918724,"57":-0.10378306857601212,"58":0.0107205932088847,"59":-0.06697331193132304,"60":-0.011968617148221509,"61":-0.01943711850662964,"62":-0.07718537261959127,"63":0.010841815179390854,"64":-0.10355345579605613,"65":-0.15880078345695314,"66":0.13383480168159245,"67":0.021158854378705082,"68":0.13970252291648197,"69":0.03282365380671542,"70":0.03265710354372344,"71":-0.026955316492281334,"72":-0.04195128206708068,"73":0.13556121439132346,"74":0.09994460657817555,"75":-0.004219071680297212,"76":0.016526514836672522,"77":-0.05820816718306064,"78":0.1312551336534791,"79":-0.0891094277208135,"80":0.05411172798036244,"81":0.09531308237382652,"82":0.12189946837937504,"83":0.006467173595702237,"84":-0.0031200592025316513,"85":0.06462496490182687,"86":-0.0036824222915857823,"87":0.036744931459732365,"88":-0.029898829145238285,"89":0.012366087399064066,"90":-0.07941562656977892,"91":0.011308050728844941,"92":-0.04930405329167612,"93":0.05400905626109051,"94":-0.015624901709786263,"95":0.00924005158980545,"96":0.018298757242158643,"97":0.05066489586879686,"98":0.029824702305208443,"99":0.007364276024795598,"100":0.01248118997618498,"101":-0.027313237968710272,"102":-0.017022378389744415,"103":-0.011382570517781881,"104":-0.09383619830804493,"105":-0.0024387089195626946,"106":-0.1047712229355299,"107":-0.010105750373229229,"108":0.06357112675971535,"109":0.05086885353879736,"110":0.03990155346062097,"111":-0.0391586995043052,"112":-0.0673391737707951,"113":0.029807432671363442,"114":-0.07472752799793157,"115":0.029013512069336313,"116":-0.06605943980025013,"117":-0.044559294526192526,"118":-0.01812120259665995,"119":-0.04471216601801732,"120":-0.02180732844946076,"121":-0.020979219486671665,"122":-0.00463414330212658,"123":-0.09642309368477874,